tree
version=v4
num_class=1
num_tree_per_iteration=1
label_index=0
max_feature_idx=10
objective=regression
feature_names=Column_0 Column_1 Column_2 Column_3 Column_4 Column_5 Column_6 Column_7 Column_8 Column_9 Column_10
feature_infos=[-1.6176268813660186:5.0564027610096591] [-0.53385000422153461:2.278357933226892] [-3.4768748644417848:2.8898515365523365] [-2.5477795378339483:2.6377606948247023] [-3.2910591102519171:1.2146704921214875] none [-1.6069081538057572:1.5871853885741669] [-1.672195978840709:1.7335261926015559] [-1.6670458717179786:1.6640698897988153] none [-0.53354994807326117:2.3641593508644934]
tree_sizes=2766 2785 2791 2761 2771 2788 2788 2766 2780 2782 2791 2784 2776 2799 2784 2784 2774 2803 2765 2774 2767 2802 2773 2774 2770 2773 2778 2795 2788 2768 2753 2772 2795 2758 2783 2769 2766 2778 2785 2784 2791 2795 2778 2793 2777 2792 2788 2774 2801 2762 2767 2788 2778 2771 2772 2778 2781 2795 2784 2783 2761 2772 2736 2730 2738 2783 2778 2725 2775 2750 2758 2753 2754 2749 2746 2736 2706 2706 2697 2742 2724 2695 2717 2716 2713 2741 2745 2707 2712 2676 2734 2721 2686 2705 2704 2692 2750 2650 2723 2687

Tree=0
num_leaves=31
num_cat=0
split_feature=1 3 8 3 6 8 8 3 7 8 6 3 8 6 7 8 1 4 8 8 4 8 3 8 8 4 3 8 8 6
split_gain=5.35476e+09 1.78814e+09 7.01581e+08 5.67999e+08 5.41876e+08 3.95166e+08 4.80388e+08 3.8522e+08 2.03615e+08 2.00726e+08 1.60863e+08 1.6455e+08 1.56915e+08 1.56182e+08 2.71493e+08 1.02612e+08 1.00442e+08 9.11084e+07 7.85024e+07 6.57081e+07 6.28021e+07 8.43485e+07 5.80355e+07 5.0004e+07 8.9003e+07 7.71394e+07 5.17072e+07 4.6319e+07 4.43915e+07 4.67131e+07
threshold=-0.04171361516805993 1.3577855741051621 -0.14631911102552914 -0.27008022045097124 -0.59060566304850848 -0.14631911102552914 0.86749872943610384 1.2133781245880857 -1.6154339426500044 0.86749872943610384 -0.30023352283215182 0.87205142572954164 0.57783648930420872 -0.30023352283215182 0.88209564974098975 1.0123298495020514 -0.51041493807613092 -1.0899843044947939 -0.43598135115742426 1.1571609695679992 -0.9864043136356353 0.28817424917231355 1.1214824748954009 -0.43598135115742426 0.72266760937015628 -0.36492436848068305 0.64887627647587831 -0.29115023109147664 0.43300536923826111 -0.8809778032648653
decision_type=2 2 2 2 2 2 2 2 2 2 2 2 2 2 2 2 2 2 2 2 2 2 2 2 2 2 2 2 2 2
left_child=7 2 22 20 9 27 13 16 -6 28 -10 -12 -13 14 -7 18 23 -15 -9 -8 21 -4 -2 -1 25 -25 -27 -3 -5 -30
right_child=1 5 3 4 8 6 19 15 10 -11 11 12 -14 17 -16 -17 -18 -19 -20 -21 -22 -23 -24 24 -26 26 -28 -29 29 -31
leaf_value=628.29326092543738 656.71432815245726 711.35661345193739 925.65730898941729 1105.4627431433323 1108.4155483727145 644.13154621428953 894.31775837542705 637.56571354693881 666.9592217465804 809.83684959615925 752.88179435228312 1027.7731773720723 796.84142413648397 1151.7833006402961 1097.2986500961256 675.38844179623982 706.48403050502873 1020.8321560085745 850.05953048824313 713.301402890605 669.97383694059363 687.87321081738662 756.51275365516278 748.81933499848253 633.57007776310502 649.86089632113703 710.21376173324097 869.58836344533893 892.66337543792235 1062.487582830076
leaf_weight=2300 325 37 26 103 22 20 65 20 76 38 123 62 56 231 39 69 231 69 133 29 160 35 71 115 1551 717 177 37 25 46
leaf_count=2300 325 37 26 103 22 20 65 20 76 38 123 62 56 231 39 69 231 69 133 29 160 35 71 115 1551 717 177 37 25 46
internal_value=697.053 851.812 782.82 838.328 892.652 1004.72 1039.72 647.68 814.229 1018.05 793.812 833.815 918.178 1092.41 943.683 776.626 642.057 1121.66 822.283 838.472 702.889 789.224 674.607 638.995 648.609 671.727 661.81 790.472 1063.53 1002.69
internal_weight=7008 1695 1168 772 551 527 453 5313 339 212 317 241 118 359 59 222 5091 300 153 94 221 61 396 4860 2560 1009 894 74 174 71
internal_count=7008 1695 1168 772 551 527 453 5313 339 212 317 241 118 359 59 222 5091 300 153 94 221 61 396 4860 2560 1009 894 74 174 71
is_linear=0
shrinkage=1


Tree=1
num_leaves=31
num_cat=0
split_feature=10 3 8 3 6 8 8 3 8 7 6 3 6 7 8 4 8 8 8 8 4 3 8 3 8 4 8 3 8 8
split_gain=4.33802e+09 1.49305e+09 5.86494e+08 4.74892e+08 4.71359e+08 3.1168e+08 4.09268e+08 2.73224e+08 1.76909e+08 1.46382e+08 1.35232e+08 1.38188e+08 1.3433e+08 2.29043e+08 1.12533e+08 7.76525e+07 7.38621e+07 5.9823e+07 5.86575e+07 9.24512e+07 9.70375e+07 6.18495e+07 5.82345e+07 6.69607e+07 5.56019e+07 5.20509e+07 6.83223e+07 5.06116e+07 3.84149e+07 3.75184e+07
threshold=-0.159985928842932 1.3577855741051621 -0.14631911102552914 -0.27008022045097124 -0.59060566304850848 -0.14631911102552914 0.86749872943610384 1.2133781245880857 0.86749872943610384 -1.6154339426500044 -0.30023352283215182 1.1477383748075967 -0.30023352283215182 0.88209564974098975 0.86749872943610384 -1.0899843044947939 1.0123298495020514 -0.43598135115742426 -0.43598135115742426 0.86749872943610384 -0.36492436848068305 0.63574832651978042 0.43300536923826111 0.41257317726611681 1.1571609695679992 -0.9864043136356353 0.28817424917231355 1.1214824748954009 0.57783648930420872 -0.29115023109147664
decision_type=2 2 2 2 2 2 2 2 2 2 2 2 2 2 2 2 2 2 2 2 2 2 2 2 2 2 2 2 2 2
left_child=7 2 27 25 8 29 12 18 28 -6 -11 22 13 -7 -13 -14 17 -9 -1 20 -20 -22 23 -12 -8 26 -4 -2 -5 -3
right_child=1 5 3 4 9 6 24 16 -10 10 11 14 15 -15 -16 -17 -18 -19 19 -21 21 -23 -24 -25 -26 -27 -28 -29 -30 -31
leaf_value=-61.764459378311976 -36.740531432786447 12.873573179502745 205.74420876136193 359.67484294645715 341.1287047704061 -49.40884254092262 174.80468718115964 -53.538239746093751 97.091577794001651 -28.73842166948922 28.110232507614867 305.45258016753615 408.18042936284496 360.22140753330331 54.406152519812956 288.84337355922645 -21.030762224486381 132.94268910477803 48.731674376487739 -57.505636842244172 -43.778307530092889 15.022693121644247 2.7387552106702651 198.61701340020875 12.832741159008396 -24.808976030067583 -8.2614880371093751 53.850667729695637 253.55563702790633 155.2821505572345
leaf_weight=2347 347 37 26 132 24 21 67 20 39 79 42 57 235 39 26 71 66 123 175 1433 858 226 74 51 31 169 35 75 46 37
leaf_count=2347 347 37 26 132 24 21 67 20 39 79 42 57 235 39 26 71 66 123 175 1433 858 226 74 51 31 169 35 75 46 37
internal_value=-2.46897e-07 135.859 74.7458 125.062 174.004 274.671 305.067 -45.5625 289.987 102.705 85.3124 121.352 353.665 216.851 226.812 380.491 66.4744 106.861 -50.2094 -40.1353 -20.3643 -31.5191 68.9387 121.614 123.569 3.77165 82.9541 -20.6402 332.251 84.0779
internal_weight=7008 1760 1222 800 570 538 464 5248 217 353 329 250 366 60 83 306 209 143 5039 2692 1259 1084 167 93 98 230 61 422 178 74
internal_count=7008 1760 1222 800 570 538 464 5248 217 353 329 250 366 60 83 306 209 143 5039 2692 1259 1084 167 93 98 230 61 422 178 74
is_linear=0
shrinkage=0.1


Tree=2
num_leaves=31
num_cat=0
split_feature=1 3 8 3 6 8 8 3 7 8 6 3 8 6 7 1 8 4 8 3 8 4 8 3 4 8 7 8 8 3
split_gain=3.51836e+09 1.17396e+09 4.60761e+08 3.73095e+08 3.53857e+08 2.5966e+08 3.14828e+08 2.51492e+08 1.36568e+08 1.30824e+08 1.0538e+08 1.16063e+08 1.03844e+08 1.02587e+08 1.77954e+08 7.07419e+07 6.69404e+07 5.96094e+07 5.12351e+07 4.57035e+07 4.31666e+07 4.11671e+07 5.5341e+07 3.96792e+07 3.6655e+07 3.49792e+07 3.32446e+07 3.20898e+07 5.9537e+07 5.67483e+07
threshold=-0.04171361516805993 1.3577855741051621 -0.14631911102552914 -0.27008022045097124 -0.59060566304850848 -0.14631911102552914 0.86749872943610384 1.2133781245880857 -1.6154339426500044 0.86749872943610384 -0.30023352283215182 0.46508497709050828 0.57783648930420872 -0.30023352283215182 0.88209564974098975 -0.51041493807613092 1.0123298495020514 -1.0899843044947939 -0.43598135115742426 0.97707502537832458 1.1571609695679992 -0.9864043136356353 0.28817424917231355 0.95081912546612879 -0.93461431820605589 -0.43598135115742426 0.6550475049781721 -0.43598135115742426 0.72266760937015628 -0.75581436882659159
decision_type=2 2 2 2 2 2 2 2 2 2 2 2 2 2 2 2 2 2 2 2 2 2 2 2 2 2 2 2 2 2
left_child=7 2 23 21 9 -3 13 15 -6 -5 26 -12 19 14 -7 27 18 -15 -9 -13 -8 22 -4 -2 -20 -25 -10 -1 29 -29
right_child=1 5 3 4 8 6 20 16 10 -11 11 12 -14 17 -16 -17 -18 -19 24 -21 -22 -23 -24 25 -26 -27 -28 28 -30 -31
leaf_value=-55.707000395401671 -38.525178300312589 75.670075298000029 185.16978466327373 296.60378719855998 336.11374678178271 -42.688105163574221 160.05813572810246 -48.184413299560553 -63.73547537667411 91.796628673453085 7.5960146230061856 141.13604528427126 62.535580186282893 368.43955728109785 324.19927806365189 9.5048011102717691 -17.602187965227213 262.51723661560948 199.43339008286944 280.0813674783912 13.340608702034785 -21.890027886182072 -7.4353391810825897 -29.891970407045807 87.19608928521474 80.526615214347842 86.460421295166029 -49.013737059563184 -51.732346795256255 -0.78300953371412807
leaf_weight=2300 280 74 26 174 22 20 65 20 56 38 75 40 68 231 39 231 69 69 43 58 29 160 35 52 90 64 20 413 1551 596
leaf_count=2300 280 74 26 174 22 20 65 20 56 38 75 40 68 231 39 231 69 69 43 58 29 160 35 52 90 64 20 413 1551 596
internal_value=-6.52518e-07 125.446 69.5447 114.528 158.556 249.342 277.713 -40.021 95.1823 259.893 78.4615 110.839 157.485 320.371 199.831 -44.5643 64.1669 344.077 101.043 223.369 114.794 4.75915 74.6586 -18.1508 123.483 31.0286 -24.2102 -47.1342 -39.4321 -20.5246
internal_weight=7008 1695 1168 772 551 527 453 5313 339 212 317 241 166 359 59 5091 222 300 153 98 94 221 61 396 133 116 76 4860 2560 1009
internal_count=7008 1695 1168 772 551 527 453 5313 339 212 317 241 166 359 59 5091 222 300 153 98 94 221 61 396 133 116 76 4860 2560 1009
is_linear=0
shrinkage=0.1


Tree=3
num_leaves=31
num_cat=0
split_feature=3 1 8 4 8 8 8 1 6 7 3 6 3 7 6 4 8 8 8 6 10 8 3 3 8 6 6 6 1 8
split_gain=2.85075e+09 8.886e+08 3.89931e+08 3.49771e+08 3.33897e+08 3.59024e+08 1.85705e+08 1.52896e+08 1.1244e+08 1.63199e+08 1.1242e+08 1.0658e+08 1.05943e+08 8.41079e+07 5.79578e+07 5.38106e+07 5.37502e+07 5.02599e+07 4.89519e+07 4.56375e+07 4.55e+07 4.47874e+07 4.43388e+07 4.08819e+07 3.92846e+07 4.38756e+07 6.7103e+07 3.22968e+07 3.16297e+07 2.95006e+07
threshold=1.2790178743685749 -0.51041493807613092 -0.14631911102552914 -0.93461431820605589 0.86749872943610384 -0.14631911102552914 0.57783648930420872 1.0000000180025095e-35 -0.30023352283215182 0.88209564974098975 -0.020649171285112174 -0.59060566304850848 0.41257317726611681 -1.0478135807429603 -0.30023352283215182 -0.46850435933984175 1.1571609695679992 1.0123298495020514 1.0000000180025095e-35 -0.59060566304850848 2.2865148537833799 -0.29115023109147664 0.93769117551003089 -0.40135972001194981 1.0123298495020514 -0.8809778032648653 -0.59060566304850848 0.86125503803327519 1.176909824392925 -0.29115023109147664
decision_type=2 2 2 2 2 2 2 2 2 2 2 2 2 2 2 2 2 2 2 2 2 2 2 2 2 2 2 2 2 2
left_child=1 29 -3 6 5 21 11 -7 9 -9 -5 13 -13 -4 -14 18 -6 19 -10 -12 -11 -2 -21 -15 25 -8 -27 -16 -20 -1
right_child=4 2 3 10 16 7 24 8 15 20 17 12 14 23 27 -17 -18 -19 28 22 -22 -23 -24 -25 -26 26 -28 -29 -30 -31
leaf_value=-49.67060386279104 5.604461869459886 -23.902055823240161 69.882712783813474 -19.142145416807022 102.60891960252007 139.0912487687005 15.018651496039496 -42.842466990153 212.71232035868877 186.73870915951937 213.89773336841213 -45.15406990418068 54.255396062677562 168.38315207439922 336.2459358547045 164.57170216242474 -13.448120772838593 -20.411109205484394 266.845124903265 34.570736858456634 392.97296508789066 130.11686765597418 147.70915216906317 314.86800586597337 2.133672690841387 241.23505444648941 55.730892944335942 176.31881163460869 353.50993586842606 -34.162547156977553
leaf_weight=2477 65 466 20 237 106 90 36 24 37 23 31 26 22 23 23 24 64 40 53 86 20 52 58 111 53 39 39 28 205 2430
leaf_count=2477 65 466 20 237 106 90 36 24 37 23 31 26 22 23 23 24 64 40 53 86 20 52 58 111 53 39 39 28 205 2430
internal_value=-2.58233e-07 -22.2935 49.9447 89.4087 182.468 217.887 155.111 256.464 283.831 166.063 28.3582 209.134 128.184 261.174 189.921 308.566 58.9169 80.7191 320.28 103.835 282.662 60.9433 80.1404 289.725 73.266 106.336 148.483 248.443 335.707 -41.9908
internal_weight=7008 6245 1338 872 763 593 420 476 386 67 452 253 99 154 73 319 170 215 295 175 43 117 144 134 167 114 78 51 258 4907
internal_count=7008 6245 1338 872 763 593 420 476 386 67 452 253 99 154 73 319 170 215 295 175 43 117 144 134 167 114 78 51 258 4907
is_linear=0
shrinkage=0.1


Tree=4
num_leaves=31
num_cat=0
split_feature=1 3 8 3 6 3 8 8 7 8 3 6 7 6 8 8 4 8 1 8 2 6 3 4 8 8 4 4 3 8
split_gain=2.32586e+09 7.77742e+08 3.24784e+08 2.60562e+08 2.2048e+08 1.66187e+08 1.50906e+08 1.8136e+08 9.90041e+07 9.09445e+07 8.74797e+07 8.59782e+07 1.48522e+08 6.53344e+07 6.81325e+07 5.40365e+07 4.78742e+07 3.95139e+07 3.92633e+07 3.78556e+07 3.66455e+07 3.16274e+07 3.83959e+07 3.00952e+07 3.00527e+07 2.99022e+07 2.86518e+07 2.77331e+07 2.7278e+07 2.55446e+07
threshold=-0.04171361516805993 1.3840414740173579 -0.14631911102552914 -0.27008022045097124 -0.59060566304850848 1.1871222246758901 1.0123298495020514 -0.14631911102552914 -1.6154339426500044 0.72266760937015628 1.1477383748075967 -0.30023352283215182 0.88209564974098975 -0.30023352283215182 0.86749872943610384 1.1571609695679992 -2.0739942176568014 -0.43598135115742426 -0.51041493807613092 0.43300536923826111 0.37522925409581881 -0.30023352283215182 0.57010857673929116 -1.6596742542201668 -0.43598135115742426 -0.29115023109147664 -0.46850435933984175 -0.93461431820605589 0.93769117551003089 0.57783648930420872
decision_type=2 2 2 2 2 2 2 2 2 2 2 2 2 2 2 2 2 2 2 2 2 2 2 2 2 2 2 2 2 2
left_child=5 2 24 23 9 18 7 25 -6 -5 19 12 -9 -12 -15 17 -13 -7 -1 21 -14 -10 -23 -4 -2 -3 -18 29 -26 -19
right_child=1 6 3 4 8 15 -8 11 10 -11 13 16 20 14 -16 -17 26 27 -20 -21 -22 22 -24 -25 28 -27 -28 -29 -30 -31
leaf_value=-38.390188273977962 -42.109105547736675 7.488499352511238 120.15573211669921 252.53074699601316 288.34660620255903 -38.878133693447822 49.615596552762121 -50.642365519205732 -41.829665120442712 106.38559459750937 9.4584208826864931 347.62482389562274 172.14057683077726 233.73465417128341 49.409155329342553 -34.344072969498171 263.51201639385476 237.44762050083705 4.2539217478406117 -17.027885146893954 359.16944519042971 39.316388867936048 171.03074864588288 -8.4711623756446652 -15.06325027346611 141.11505801460962 143.98914600719107 63.89746751104083 62.222412985143528 93.645751164754245
leaf_weight=4835 204 34 20 153 22 27 55 24 21 59 31 68 22 65 29 62 227 21 226 95 20 53 38 201 128 33 22 112 71 30
leaf_count=4835 204 34 20 153 22 27 55 24 21 59 31 68 22 65 29 62 227 21 226 95 20 53 38 201 128 33 22 112 71 30
internal_value=1.18349e-07 101.995 57.8682 95.2525 131.207 -32.5394 205.978 225.089 82.9077 211.858 69.2943 251.641 147.804 135.351 176.868 46.7192 273.26 73.1715 -36.4859 29.4051 261.202 68.7903 94.318 3.16928 -15.1379 73.3046 252.952 91.7318 12.511 152.858
internal_weight=7008 1695 1190 787 566 5313 505 450 354 212 332 383 66 125 94 252 317 190 5061 207 42 112 91 221 403 67 249 163 199 51
internal_count=7008 1695 1190 787 566 5313 505 450 354 212 332 383 66 125 94 252 317 190 5061 207 42 112 91 221 403 67 249 163 199 51
is_linear=0
shrinkage=0.1


Tree=5
num_leaves=31
num_cat=0
split_feature=10 3 8 4 8 8 8 3 6 7 3 6 6 3 4 1 8 8 3 8 6 8 8 6 3 8 8 4 3 8
split_gain=1.88496e+09 6.50924e+08 2.74164e+08 2.22061e+08 1.39736e+08 1.2434e+08 1.46576e+08 1.14009e+08 7.99774e+07 1.23907e+08 7.91559e+07 5.6888e+07 5.8661e+07 5.83551e+07 5.17474e+07 4.26751e+07 4.26052e+07 4.14475e+07 4.11873e+07 5.48623e+07 4.1656e+07 3.51024e+07 3.25607e+07 3.34165e+07 3.31398e+07 3.13419e+07 5.18503e+07 6.9714e+07 4.68866e+07 3.09853e+07
threshold=-0.159985928842932 1.3840414740173579 -0.14631911102552914 -0.93461431820605589 0.43300536923826111 1.0123298495020514 1.0000000180025095e-35 1.2133781245880857 -0.30023352283215182 0.88209564974098975 0.018734678583181352 -0.59060566304850848 -0.30023352283215182 0.71451602625636756 -1.7114642496497463 1.176909824392925 -0.29115023109147664 0.72266760937015628 -0.060033021153405752 1.0123298495020514 0.57088289781691848 0.86749872943610384 0.86749872943610384 -0.59060566304850848 0.97707502537832458 -0.58081247122337176 0.86749872943610384 -0.36492436848068305 0.63574832651978042 -0.29115023109147664
decision_type=2 2 2 2 2 2 2 2 2 2 2 2 2 2 2 2 2 2 2 2 2 2 2 2 2 2 2 2 2 2
left_child=7 2 -2 4 11 6 16 25 9 -8 -5 14 -13 -14 -4 -10 -3 -17 -6 20 -20 29 23 -12 -25 -1 27 -27 -29 -9
right_child=1 5 3 10 18 -7 8 21 15 -11 22 12 13 -15 -16 17 -18 -19 19 -21 -22 -23 -24 24 -26 26 -28 28 -30 -31
leaf_value=-42.14456107036667 -14.277324769157909 6.7396498063031363 293.91651099709901 -13.437650499624366 -19.082172311318889 43.437905202593129 -48.212651316324873 -19.892307523580698 190.65551179082772 240.5756959768442 222.03687927246094 17.100869954427083 63.294303369522098 260.53372848510747 162.1076080178315 300.94713174054726 141.97419103158487 192.81547470092775 159.06104101859606 5.3584607263406125 19.656798412181715 -6.1925472084133109 6.8094958166281394 33.55849201877912 142.59166574096682 43.946802706366526 -39.690478081006063 -30.990316647403645 17.24024543412148 103.17295701305073
leaf_weight=2159 429 34 68 204 37 56 24 26 76 39 20 30 24 40 53 167 74 45 104 48 27 87 48 63 50 188 1433 1007 252 96
leaf_count=2159 429 34 68 204 37 56 24 26 76 39 20 30 24 40 53 167 74 45 104 48 27 87 48 63 50 188 1433 1007 252 96
internal_value=-2.6973e-07 89.556 50.4424 84.4679 133.772 184.112 201.275 -30.034 232.621 130.561 29.2729 190.844 132.483 186.569 236.182 254.947 99.4004 277.995 76.9641 96.8173 130.329 42.338 77.4108 102.891 81.8033 -33.0358 -26.2073 -12.8547 -21.3365 76.9459
internal_weight=7008 1760 1245 816 431 515 459 5248 351 63 385 215 94 64 121 288 108 212 216 179 131 209 181 133 113 5039 2880 1447 1259 122
internal_count=7008 1760 1245 816 431 515 459 5248 351 63 385 215 94 64 121 288 108 212 216 179 131 209 181 133 113 5039 2880 1447 1259 122
is_linear=0
shrinkage=0.1


Tree=6
num_leaves=31
num_cat=0
split_feature=1 3 8 3 6 8 8 3 6 7 8 3 8 8 8 4 6 6 4 8 2 0 2 7 8 8 4 3 8 4
split_gain=1.52718e+09 5.13812e+08 1.95243e+08 1.66439e+08 1.6352e+08 1.37278e+08 1.53166e+08 1.10645e+08 6.62086e+07 1.05825e+08 6.41264e+07 5.08699e+07 4.95117e+07 4.84305e+07 4.90688e+07 3.66103e+07 3.43248e+07 3.34198e+07 3.28467e+07 2.98957e+07 2.97803e+07 2.79028e+07 2.98728e+07 2.54675e+07 2.50085e+07 6.35347e+07 7.03199e+07 3.69602e+07 2.38406e+07 2.31535e+07
threshold=-0.04171361516805993 1.3052737742807705 -0.14631911102552914 -0.41448766996804759 -0.59060566304850848 -0.14631911102552914 1.0123298495020514 1.1083545249393032 -0.30023352283215182 0.88209564974098975 0.57783648930420872 0.46508497709050828 0.57783648930420872 1.1571609695679992 -0.43598135115742426 -2.2293642039455395 -0.30023352283215182 -0.8809778032648653 -0.57208435019900039 0.86749872943610384 0.37522925409581881 0.12741756641110794 -0.11752721182879315 -0.48019321883591631 -0.29115023109147664 0.72266760937015628 -0.8828243227764766 -0.82145411860708084 -0.43598135115742426 0.10118559038553117
decision_type=2 2 2 2 2 2 2 2 2 2 2 2 2 2 2 2 2 2 2 2 2 2 2 2 2 2 2 2 2 2
left_child=7 2 -2 -4 10 28 8 24 9 -7 18 -6 16 14 -9 -10 -13 -12 -5 -19 -11 22 -17 -18 -1 26 -26 -28 -3 -29
right_child=1 5 3 4 11 6 -8 13 15 20 17 12 -14 -15 -16 21 23 19 -20 -21 -22 -23 -24 -25 25 -27 27 29 -30 -31
leaf_value=-37.137012586367284 -15.652833288621139 -31.061470314172595 -8.0384241624254926 225.09115025590106 -5.064742725372315 -44.40714886005108 37.868594527244568 -34.284877174377442 312.18780075073244 134.95800908406576 4.4193995440447775 26.011875697544646 28.831272580113154 -30.480755453805131 77.239819894882444 92.437624269373288 216.82124996700804 209.64356536865236 92.423151447556236 71.714105149471408 300.18094726562498 233.55204614169935 204.97953703248655 110.64187005141687 101.49686614802627 -35.386094280107123 -35.666236291816851 41.512399416443309 81.0780568245479 -5.7395491132626733
leaf_weight=2507 374 26 190 123 100 26 64 50 40 24 27 28 101 96 187 34 37 30 22 33 20 191 77 58 61 1545 334 141 70 392
leaf_count=2507 374 26 190 123 100 26 64 50 40 24 27 28 101 96 187 34 37 30 22 33 20 191 77 58 61 1545 334 141 70 392
internal_value=7.03074e-08 82.648 43.3541 72.8182 100.301 159.793 181.794 -26.3671 204.151 115.543 163.807 54.239 80.7139 29.4398 53.7114 222.287 123.317 97.5022 204.962 137.395 210.059 210.38 170.507 151.996 -30.0988 -22.9638 -2.28219 -9.58383 50.7069 6.7605
internal_weight=7008 1695 1123 749 559 572 476 5313 412 70 235 324 224 333 237 342 123 90 145 63 44 302 111 95 4980 2473 928 867 96 533
internal_count=7008 1695 1123 749 559 572 476 5313 412 70 235 324 224 333 237 342 123 90 145 63 44 302 111 95 4980 2473 928 867 96 533
is_linear=0
shrinkage=0.1


Tree=7
num_leaves=31
num_cat=0
split_feature=10 3 8 4 8 8 8 3 8 6 7 3 6 3 6 4 4 8 3 8 8 6 8 7 3 6 8 2 3 0
split_gain=1.24432e+09 4.78536e+08 1.89066e+08 1.81998e+08 1.01027e+08 1.36275e+08 8.18542e+07 5.80924e+07 5.33086e+07 4.288e+07 6.86183e+07 4.14891e+07 3.8146e+07 5.5557e+07 3.83343e+07 2.97328e+07 2.95071e+07 2.4757e+07 2.97243e+07 2.32372e+07 3.44254e+07 2.22066e+07 2.61748e+07 2.04492e+07 1.96848e+07 2.57985e+07 1.9549e+07 1.94045e+07 1.94036e+07 1.92806e+07
threshold=-0.48651182832993495 1.3315296741929663 -0.29115023109147664 -0.83103432734689731 -0.14631911102552914 0.86749872943610384 0.57783648930420872 -0.48012741974853684 1.0000000180025095e-35 -0.30023352283215182 0.99561972212239869 1.0033309252905203 -0.59060566304850848 0.41257317726611681 -0.30023352283215182 -1.6596742542201668 -2.0739942176568014 1.0123298495020514 0.2812936777051383 1.3019920896339465 -0.58081247122337176 0.86125503803327519 1.0123298495020514 -0.48019321883591631 1.1083545249393032 -0.59060566304850848 0.28817424917231355 -0.12534874303394297 1.9354153721734675 0.43356571514393721
decision_type=2 2 2 2 2 2 2 2 2 2 2 2 2 2 2 2 2 2 2 2 2 2 2 2 2 2 2 2 2 2
left_child=11 2 -2 6 -3 9 8 -5 24 10 -6 -1 15 -14 -15 26 -11 18 -8 20 -13 22 -9 -16 25 -4 -10 29 -29 -18
right_child=1 4 3 7 5 -7 17 21 12 16 -12 19 13 14 23 -17 27 -19 -20 -21 -22 -23 -24 -25 -26 -27 -28 28 -30 -31
leaf_value=-28.77075346187943 -27.101516925936018 43.946450464115593 92.229343237195707 -29.679307470579403 -0.17595404263200431 59.588377204308145 11.073266927401226 78.333436225894047 281.36234705071701 266.11925224304201 210.66737707889445 -33.660605017175065 -18.823119567871096 39.260079520089285 269.8485346255095 128.37529844201129 104.52946281433105 -5.3964616970937769 111.84925430297852 -38.028912479400638 38.349931772831269 4.0750905432791082 -11.941270666122437 144.5195226454735 146.21448583602907 -29.187339553833013 183.44695731076328 226.79698439863392 140.06443743705751 191.37820680649554
leaf_weight=4650 355 86 42 185 29 104 48 163 38 60 33 94 25 21 23 46 44 61 75 100 226 106 40 30 24 30 44 133 32 61
leaf_count=4650 355 86 42 185 29 104 48 163 38 60 33 94 25 21 23 46 44 61 75 100 226 106 40 30 24 30 44 133 32 61
internal_value=3.47609e-07 68.1548 35.6002 57.837 144.004 161.352 99.9268 14.6396 130.253 188.351 112.047 -26.0521 156.673 110.06 153.602 192.724 202.687 46.6904 72.522 4.04785 17.1968 41.1737 60.5453 198.908 67.7829 41.6391 228.822 188.59 209.976 154.984
internal_weight=7008 1938 1356 1001 582 496 507 494 323 392 62 5070 227 99 74 128 330 184 123 420 320 309 203 53 96 72 82 270 165 105
internal_count=7008 1938 1356 1001 582 496 507 494 323 392 62 5070 227 99 74 128 330 184 123 420 320 309 203 53 96 72 82 270 165 105
is_linear=0
shrinkage=0.1


Tree=8
num_leaves=31
num_cat=0
split_feature=10 3 8 4 8 8 8 8 6 6 3 8 4 3 6 0 1 7 8 6 6 3 6 2 7 8 8 8 8 0
split_gain=1.0079e+09 3.88413e+08 1.49479e+08 1.46196e+08 8.94395e+07 1.00813e+08 6.90088e+07 5.40314e+07 4.6986e+07 5.49872e+07 4.47494e+07 3.93463e+07 3.66005e+07 3.36062e+07 2.75427e+07 4.48815e+07 2.32236e+07 2.24832e+07 1.96434e+07 2.37899e+07 3.52765e+07 2.97902e+07 1.91362e+07 2.29845e+07 2.2167e+07 1.88221e+07 2.80997e+07 1.85118e+07 1.64055e+07 1.63427e+07
threshold=-0.48651182832993495 1.3052737742807705 -0.29115023109147664 -0.83103432734689731 -0.29115023109147664 0.86749872943610384 0.57783648930420872 1.0000000180025095e-35 0.86125503803327519 -1.171349943481222 -0.48012741974853684 1.0000000180025095e-35 -0.57208435019900039 1.0033309252905203 -0.30023352283215182 0.12741756641110794 1.176909824392925 -0.70724136359873391 1.1571609695679992 -0.8809778032648653 -0.59060566304850848 0.78015577603685682 -0.59060566304850848 -1.2438277053707492 -0.25314507407309861 1.3019920896339465 -0.43598135115742426 1.1571609695679992 0.72266760937015628 0.67848423413020076
decision_type=2 2 2 2 2 2 2 2 2 2 2 2 2 2 2 2 2 2 2 2 2 2 2 2 2 2 2 2 2 2
left_child=13 2 -2 6 -3 7 8 -6 9 -4 -5 -11 14 -1 15 -9 -16 29 19 -8 -21 -22 24 -24 -12 26 -15 -7 -18 -13
right_child=1 4 3 10 5 27 18 12 -10 11 22 17 -14 25 16 -17 28 -19 -20 20 21 -23 23 -25 -26 -27 -28 -29 -30 -31
leaf_value=-25.893678239169784 -25.274151530964623 2.0488046228885652 -23.201104583740236 -26.711377797771146 92.176642944992238 80.500828407906198 -10.77700965695265 12.875701002641158 37.684304118156433 90.819431468418671 146.86383577982585 186.97916739781698 77.463545365767061 -26.926210768393112 152.60649431727521 200.92147361755372 229.5354144234189 204.87555762154716 -35.620223467925506 140.50563516235351 -65.831816101074224 80.389036976663704 93.587668912661712 8.6098631508496339 30.474355019463435 -34.226021347999577 36.185772675358969 -8.640769476049087 142.87224658203124 76.267616271972656
leaf_weight=4650 348 52 20 185 93 74 41 22 60 77 30 24 33 105 73 30 173 105 29 50 22 38 38 196 36 100 215 34 25 30
leaf_count=4650 348 52 20 185 93 74 41 22 60 77 30 24 33 105 73 30 173 105 29 50 22 38 38 196 36 100 215 34 25 30
internal_value=-1.93951e-09 61.3393 31.0341 51.0089 127.473 139.182 89.1825 160.048 117.334 136.002 11.9696 149.494 177.778 -23.4468 188.027 121.364 200.818 177.909 39.7607 54.2378 78.4706 26.7747 35.8229 22.4097 83.3787 3.64306 15.4772 52.4377 218.593 125.473
internal_weight=7008 1938 1329 981 609 557 496 449 316 256 485 236 356 5070 323 52 271 159 180 151 110 60 300 234 66 420 320 108 198 54
internal_count=7008 1938 1329 981 609 557 496 449 316 256 485 236 356 5070 323 52 271 159 180 151 110 60 300 234 66 420 320 108 198 54
is_linear=0
shrinkage=0.1


Tree=9
num_leaves=31
num_cat=0
split_feature=10 3 4 8 8 6 6 7 3 6 7 8 8 4 6 8 3 8 8 8 4 10 0 6 3 10 3 8 8 4
split_gain=8.18181e+08 2.8025e+08 1.08574e+08 8.96072e+07 9.79972e+07 7.08839e+07 6.98453e+07 9.89587e+07 5.25734e+07 4.33651e+07 4.14431e+07 4.13283e+07 4.76394e+07 3.97694e+07 3.49814e+07 3.12966e+07 3.68274e+07 3.76187e+07 2.65706e+07 3.05854e+07 2.46835e+07 2.40082e+07 2.2746e+07 2.17847e+07 2.15741e+07 1.91735e+07 1.72283e+07 1.662e+07 4.57683e+07 3.63682e+07
threshold=-0.11899917211004211 1.1871222246758901 -1.2971442862131115 -0.29115023109147664 1.0123298495020514 -0.59060566304850848 -0.30023352283215182 0.88209564974098975 1.1083545249393032 -1.171349943481222 -1.5019098702685956 -0.14631911102552914 0.43300536923826111 -1.0899843044947939 -0.30023352283215182 1.0000000180025095e-35 -0.42761561992414548 0.28817424917231355 1.0123298495020514 -0.14631911102552914 -2.2293642039455395 2.2884339738811805 0.31110645565080569 -0.59060566304850848 0.071246478407572741 2.2920708106407046 0.95081912546612879 -0.29115023109147664 0.57783648930420872 -0.77924433191731779
decision_type=2 2 2 2 2 2 2 2 2 2 2 2 2 2 2 2 2 2 2 2 2 2 2 2 2 2 2 2 2 2
left_child=8 2 5 -3 6 9 7 -5 27 -2 -7 -11 25 20 -12 -4 -17 -18 19 -10 -8 -9 -15 -19 -14 -13 -25 -1 29 -29
right_child=1 3 15 4 -6 10 13 21 18 11 14 12 24 22 -16 16 17 23 -20 -21 -22 -23 -24 26 -26 -27 -28 28 -30 -31
leaf_value=-27.912066656805173 -27.974167286265981 5.0558692940183594 -17.993117587828223 -57.388908200147675 21.165717757883527 150.50854988098146 243.02461391795765 95.939897155761727 -15.230050513148308 4.5570597877105081 -60.041681925455727 162.00296369791033 9.5561225891113288 65.181712481379506 44.361350622038913 -16.383132726229157 121.53163889476232 84.54980383584666 -18.426753554966137 68.504464853941087 162.16764483846222 231.9316218784877 150.52174467493276 -33.195585975531614 117.57782956957817 268.4555691926376 51.63519307833451 79.367757933018581 -25.515236982334869 -2.3499524279376547
leaf_weight=2494 22 74 346 41 84 20 44 34 64 27 60 64 26 64 69 130 56 43 115 137 266 21 61 62 64 23 39 59 1691 708
leaf_count=2494 22 74 346 41 84 20 44 34 64 27 60 64 26 64 69 130 56 43 115 137 266 21 61 62 64 23 39 59 1691 708
internal_value=-5.9614e-08 59.4533 26.959 109.02 121.529 70.1129 137.406 60.2039 -19.6372 105.415 16.5678 119.8 137.379 154.444 -4.1982 3.02017 25.0523 51.9853 19.9092 41.8427 173.644 147.864 106.828 24.9395 86.3716 190.146 -0.439147 -22.1607 -16.3252 3.93603
internal_weight=7008 1740 1051 689 615 375 531 96 5268 226 149 204 177 435 129 676 330 200 316 201 310 55 125 144 90 87 101 4952 2458 767
internal_count=7008 1740 1051 689 615 375 531 96 5268 226 149 204 177 435 129 676 330 200 316 201 310 55 125 144 90 87 101 4952 2458 767
is_linear=0
shrinkage=0.1


Tree=10
num_leaves=31
num_cat=0
split_feature=1 3 8 8 8 8 3 6 4 6 7 4 10 8 7 3 8 8 3 8 8 8 6 6 8 8 6 4 6 0
split_gain=6.6816e+08 2.57198e+08 9.87662e+07 7.77229e+07 7.06943e+07 1.0205e+08 6.59507e+07 7.27904e+07 5.29491e+07 4.19925e+07 6.59374e+07 3.25608e+07 3.08476e+07 2.95393e+07 2.8988e+07 2.86952e+07 2.9921e+07 2.75142e+07 2.09491e+07 2.01935e+07 3.73229e+07 1.89194e+07 3.62653e+07 2.21051e+07 1.86316e+07 1.73238e+07 1.56271e+07 1.45754e+07 1.51498e+07 1.40285e+07
threshold=-0.51041493807613092 1.1871222246758901 1.0000000180025095e-35 0.28817424917231355 -0.14631911102552914 0.72266760937015628 -0.13880072088999276 -0.59060566304850848 -0.77924433191731779 -0.30023352283215182 0.99561972212239869 -1.0899843044947939 2.2256285115731713 0.86749872943610384 0.20095121545253666 0.80641167594905239 1.0123298495020514 1.1571609695679992 0.67513217638807388 -0.58081247122337176 1.0123298495020514 -0.43598135115742426 0.86125503803327519 -1.171349943481222 1.0000000180025095e-35 -0.43598135115742426 -0.30023352283215182 0.82624552639964233 -0.30023352283215182 0.55602497463706901
decision_type=2 2 2 2 2 2 2 2 2 2 2 2 2 2 2 2 2 2 2 2 2 2 2 2 2 2 2 2 2 2
left_child=18 2 21 8 25 9 -5 13 12 10 -6 24 14 -8 -4 -9 -17 26 -1 -20 27 -2 23 -23 -11 -3 -7 28 -21 -28
right_child=1 4 3 6 5 17 7 15 -10 11 -12 -13 -14 -15 -16 16 -18 -19 19 20 -22 22 -24 -25 -26 -27 29 -29 -30 -31
leaf_value=-22.856291727140128 -31.199221941348043 -24.619846957921983 28.914670422871911 -28.192516290178954 -25.864703623453778 11.31246385574341 132.47835524689918 -32.215804455789289 45.565226747475421 99.386924724578861 169.83148989821927 105.00809320777353 205.78914187749228 32.833101721037004 169.12362564843278 88.406869046650243 -21.352690799061847 -13.02227533721924 -25.046789047524737 -44.580578155517578 -20.86708080118353 -47.626682116190594 -43.84950122088194 45.734158147399022 183.61011400493965 53.709771282970905 59.64308173358441 -3.9490709903912666 46.19024163672799 130.74089914438676
leaf_weight=3910 248 40 30 161 36 32 102 89 102 30 33 99 48 42 29 63 41 50 407 20 341 30 96 164 211 96 64 117 228 49
leaf_count=3910 248 40 30 161 36 32 102 89 102 30 33 99 48 42 29 63 41 50 407 20 341 30 96 164 211 96 64 117 228 49
internal_value=-1.32597e-09 49.1184 21.367 45.9368 95.8083 110.475 24.4573 49.6105 97.1175 138.857 67.7291 153.292 146.261 103.415 97.8309 9.46614 45.1363 50.9454 -19.4107 -7.30638 2.92075 -10.9207 6.42086 31.2969 173.126 30.6716 73.0032 25.1444 38.87 90.4731
internal_weight=7008 1985 1245 707 740 604 498 337 209 409 69 340 107 144 59 193 104 195 5023 1113 706 538 290 194 241 136 145 365 248 113
internal_count=7008 1985 1245 707 740 604 498 337 209 409 69 340 107 144 59 193 104 195 5023 1113 706 538 290 194 241 136 145 365 248 113
is_linear=0
shrinkage=0.1


Tree=11
num_leaves=31
num_cat=0
split_feature=1 3 8 8 8 8 3 6 4 6 7 4 10 8 7 3 8 8 3 2 2 8 6 6 8 8 8 6 4 0
split_gain=5.4121e+08 2.08331e+08 8.00006e+07 6.29555e+07 5.72624e+07 8.26604e+07 5.34201e+07 5.89603e+07 4.28887e+07 3.40139e+07 5.44681e+07 2.71215e+07 2.49865e+07 2.39268e+07 2.34803e+07 2.32432e+07 2.4236e+07 2.22865e+07 1.72227e+07 1.69934e+07 2.56031e+07 1.53247e+07 2.93749e+07 1.79051e+07 1.49756e+07 3.08731e+07 1.40323e+07 1.2658e+07 1.32137e+07 1.90585e+07
threshold=-0.51041493807613092 1.1871222246758901 1.0000000180025095e-35 0.28817424917231355 -0.14631911102552914 0.72266760937015628 -0.13880072088999276 -0.59060566304850848 -0.77924433191731779 -0.30023352283215182 1.1091437945038076 -2.1257842130863809 2.2256285115731713 0.86749872943610384 0.20095121545253666 0.80641167594905239 1.0123298495020514 1.1571609695679992 0.79328372599295449 -0.18792099267516374 -1.1656123933192244 -0.43598135115742426 0.86125503803327519 -1.171349943481222 -0.58081247122337176 1.0123298495020514 -0.43598135115742426 -0.30023352283215182 -2.0222042222272223 0.617254604383635
decision_type=2 2 2 2 2 2 2 2 2 2 2 2 2 2 2 2 2 2 2 2 2 2 2 2 2 2 2 2 2 2
left_child=18 2 21 8 26 9 -5 13 12 10 -6 -11 14 -8 -4 -9 -17 27 -1 20 -13 -2 23 -23 -20 -26 -3 -7 -29 -30
right_child=1 4 3 6 5 17 7 15 -10 11 -12 19 -14 -15 -16 16 -18 -19 24 -21 -22 22 -24 -25 25 -27 -28 28 29 -31
leaf_value=-20.125483868963951 -28.079300061204744 -22.157862248420717 26.023203671773274 -25.373265471443627 -12.467052776057546 10.181220483779908 119.23051900045546 -28.994223821966838 41.008703679898211 217.58365477511757 168.46885545253755 197.52288760230655 185.21023126443228 29.54979129064651 152.21126475498596 79.56618194882833 -19.217421266509266 -11.720047752380372 -22.617841268941312 146.54607680825629 75.393116596911824 -42.864014205932619 -39.464551431623597 41.160742375327324 28.978850837360728 -18.069868137979679 48.338793563842778 134.66853786815298 15.313849483836783 113.42344275580513
leaf_weight=4166 248 40 30 161 41 32 102 89 102 38 28 21 48 42 29 63 41 50 299 187 94 30 96 164 275 283 96 33 44 36
leaf_count=4166 248 40 30 161 41 32 102 89 102 38 28 21 48 42 29 63 41 50 299 187 94 30 96 164 275 283 96 33 44 36
internal_value=-3.77281e-07 44.2066 19.2303 41.3431 86.2275 99.4273 22.0116 44.6495 87.4057 124.971 60.9562 137.962 131.635 93.0736 88.0478 8.51953 40.6226 45.8508 -17.4697 127.944 97.6951 -9.82867 5.77877 28.1672 -4.5593 5.11722 27.6045 65.7029 81.4258 59.4632
internal_weight=7008 1985 1245 707 740 604 498 337 209 409 69 340 107 144 59 193 104 195 5023 302 115 538 290 194 857 558 136 145 113 80
internal_count=7008 1985 1245 707 740 604 498 337 209 409 69 340 107 144 59 193 104 195 5023 302 115 538 290 194 857 558 136 145 113 80
is_linear=0
shrinkage=0.1


Tree=12
num_leaves=31
num_cat=0
split_feature=1 3 8 3 6 8 8 7 6 8 6 7 3 4 8 6 10 8 8 3 8 8 4 7 1 6 4 0 4 1
split_gain=4.3838e+08 1.68748e+08 6.68789e+07 6.52835e+07 8.39963e+07 4.75181e+07 8.12698e+07 3.23993e+07 4.02789e+07 2.74595e+07 2.54593e+07 4.37957e+07 2.14465e+07 2.0979e+07 1.80521e+07 1.75379e+07 2.11091e+07 1.74406e+07 1.55077e+07 1.46693e+07 1.7125e+07 3.18476e+07 2.25709e+07 1.2814e+07 1.17586e+07 1.0253e+07 1.07031e+07 1.54374e+07 1.00806e+07 1.16909e+07
threshold=-0.51041493807613092 1.1871222246758901 -0.29115023109147664 -0.41448766996804759 -0.59060566304850848 1.0000000180025095e-35 0.72266760937015628 -1.6154339426500044 -0.30023352283215182 0.86749872943610384 -0.30023352283215182 0.88209564974098975 0.93769117551003089 -1.0899843044947939 1.1571609695679992 -0.8809778032648653 2.2406782097104503 1.0123298495020514 -0.43598135115742426 0.53072472687099748 -0.58081247122337176 1.0123298495020514 -0.15776438676236562 0.31447528783394552 0.56759810461243254 -0.30023352283215182 -2.0222042222272223 0.617254604383635 -1.245354290783532 2.2549228670814885
decision_type=2 2 2 2 2 2 2 2 2 2 2 2 2 2 2 2 2 2 2 2 2 2 2 2 2 2 2 2 2 2
left_child=19 2 -2 28 9 18 10 -6 -9 15 11 -7 -10 24 25 16 -5 -14 -3 -1 -21 22 -22 -17 -12 -8 -27 -28 29 -4
right_child=1 5 3 4 7 6 14 8 12 -11 13 -13 17 -15 -16 23 -18 -19 -20 20 21 -23 -24 -25 -26 26 27 -29 -30 -31
leaf_value=-19.002274846098658 -20.814392026977259 -19.942076073884966 -17.286488451276508 23.584708800214404 134.75056214332582 -28.689834158761158 9.163095235824585 -55.816641843641129 7.9746093668367557 21.864134341843275 97.668596017020093 141.34757718172941 95.258678913116455 89.030688402811691 -10.548042488098146 100.19574337971362 119.96325065764513 -4.7013820528984072 49.760295242599298 -20.661420889326191 60.290599886146758 -17.890504658147318 7.627155653844115 161.49585219065349 161.13281404321845 121.20168389985056 13.782464686307041 102.08110035790338 -19.163699228515451 89.542911224365241
leaf_weight=3671 336 40 21 47 22 28 32 74 184 49 35 33 64 75 50 79 44 24 158 538 111 398 305 60 176 33 44 36 221 20
leaf_count=3671 336 40 21 47 22 28 32 74 184 49 35 33 64 75 50 79 44 24 158 538 111 398 305 60 176 33 44 36 221 20
internal_value=1.70403e-07 39.7859 17.3073 31.3985 48.4522 77.6047 92.9208 17.0792 9.59716 89.8331 121.949 63.2976 27.3936 134.458 41.2657 104.313 70.1853 67.9968 35.679 -15.7227 -6.81784 2.33184 21.6792 126.656 150.606 59.1326 73.2832 53.5169 -10.715 34.8254
internal_weight=7008 1985 1245 909 647 740 542 368 346 279 347 61 272 286 195 230 91 88 198 5023 1352 814 416 139 211 145 113 80 262 41
internal_count=7008 1985 1245 909 647 740 542 368 346 279 347 61 272 286 195 230 91 88 198 5023 1352 814 416 139 211 145 113 80 262 41
is_linear=0
shrinkage=0.1


Tree=13
num_leaves=31
num_cat=0
split_feature=10 3 6 6 8 8 8 8 6 7 7 3 4 0 2 6 6 10 3 8 8 8 10 8 8 3 8 3 8 8
split_gain=3.55439e+08 1.26953e+08 5.04503e+07 7.54474e+07 6.08731e+07 4.51635e+07 4.78272e+07 3.62204e+07 3.46909e+07 5.69446e+07 2.28255e+07 2.28039e+07 2.20216e+07 2.0277e+07 1.75627e+07 1.62984e+07 1.6081e+07 1.59979e+07 1.53382e+07 1.51097e+07 1.28462e+07 1.78216e+07 1.26907e+07 1.23475e+07 3.36205e+07 1.75489e+07 1.07348e+07 1.0378e+07 1.5736e+07 3.06e+07
threshold=-0.15652271573519952 1.1739942747197925 -0.59060566304850848 -1.171349943481222 -0.14631911102552914 -0.29115023109147664 1.0123298495020514 0.43300536923826111 -0.30023352283215182 0.88209564974098975 -1.6154339426500044 1.0033309252905203 -2.2293642039455395 0.43356571514393721 -0.1488133366494013 -0.8809778032648653 -0.30023352283215182 2.2884339738811805 0.95081912546612879 1.0123298495020514 1.3019920896339465 -0.14631911102552914 2.2951265869122328 1.0000000180025095e-35 0.28817424917231355 0.17627007805635567 0.57783648930420872 -0.72955846891439602 -0.58081247122337176 1.0123298495020514
decision_type=2 2 2 2 2 2 2 2 2 2 2 2 2 2 2 2 2 2 2 2 2 2 2 2 2 2 2 2 2 2
left_child=11 2 3 -2 -5 -3 8 22 9 -7 -4 27 -10 14 -14 -9 -12 -11 23 -17 21 -13 -6 -18 25 -25 -23 -1 -29 -30
right_child=1 5 10 4 7 6 -8 15 12 17 16 20 13 -15 -16 19 18 -19 -20 -21 -22 26 -24 24 -26 -27 -28 28 29 -31
leaf_value=-20.779372523859507 -26.348261889289411 -0.27205805910098085 81.364761580190361 -5.1440397240898825 113.19406129215723 -49.938591366722477 11.186013250911937 4.4919460252273913 170.91224205710671 62.310035122142125 -40.878539699691913 -11.852620118718063 31.202871595110214 120.94843273267641 93.937324934068073 103.42906361726614 -27.487461595757068 173.32041713169644 35.509764462072873 4.0337661695480351 -22.857493205382447 58.490635996327107 190.08241819654194 30.182438656299013 -24.288192552846748 138.77229482477364 15.209288728582687 -19.548676471907328 7.9291008952693574 -20.004587775401856
leaf_weight=1917 119 77 31 88 92 42 85 43 44 34 111 140 63 182 153 65 172 21 103 20 107 98 28 46 109 22 138 1273 873 712
leaf_count=1917 119 77 31 88 92 42 85 43 44 34 111 140 63 182 153 65 172 21 103 20 107 98 28 46 109 22 138 1273 873 712
internal_value=1.7774e-07 39.0371 17.0192 42.0764 66.3101 71.9852 80.9016 91.6648 91.8957 37.7407 -2.17437 -12.9926 103.78 96.3588 75.6398 54.6619 -6.77422 104.696 1.60096 80.0419 7.71397 16.4138 131.135 -8.40651 10.1354 65.3145 33.1821 -15.0871 -11.2689 -4.61903
internal_weight=7008 1750 1049 455 336 701 624 248 539 97 594 5258 442 398 216 128 563 55 452 85 483 376 120 349 177 68 236 4775 2858 1585
internal_count=7008 1750 1049 455 336 701 624 248 539 97 594 5258 442 398 216 128 563 55 452 85 483 376 120 349 177 68 236 4775 2858 1585
is_linear=0
shrinkage=0.1


Tree=14
num_leaves=31
num_cat=0
split_feature=4 8 8 6 6 7 7 3 2 6 6 8 8 6 8 10 3 4 1 8 3 3 3 7 7 3 10 8 8 6
split_gain=2.9464e+08 1.12869e+08 1.35412e+08 6.10212e+07 4.40021e+07 3.49605e+07 3.56114e+07 3.27343e+07 5.0143e+07 3.18473e+07 9.71465e+07 2.25603e+07 2.21578e+07 1.905e+07 1.82002e+07 1.6601e+07 1.59149e+07 1.7476e+07 1.51893e+07 1.30096e+07 1.24283e+07 1.12332e+07 9.93078e+06 9.32341e+06 2.03585e+07 9.23871e+06 1.46008e+07 1.19575e+07 2.2103e+07 2.22835e+07
threshold=-0.8828243227764766 -0.29115023109147664 1.0123298495020514 0.86125503803327519 -1.171349943481222 -1.6154339426500044 1.1091437945038076 0.93769117551003089 -1.2203631117552909 -0.30023352283215182 -0.59060566304850848 0.57783648930420872 0.43300536923826111 -0.8809778032648653 1.0000000180025095e-35 2.2147480960609101 1.0000000180025095e-35 -1.970414226797643 0.52072797232162549 1.0000000180025095e-35 1.436553273841749 1.4496812237978471 0.41257317726611681 -1.0478135807429603 -0.13962100169168984 -0.75581436882659159 2.3012381394552901 -0.43598135115742426 0.57783648930420872 -0.59060566304850848
decision_type=2 2 2 2 2 2 2 2 2 2 2 2 2 2 2 2 2 2 2 2 2 2 2 2 2 2 2 2 2 2
left_child=1 -1 3 4 -3 -6 9 25 -9 10 12 14 16 -14 -11 -12 -7 -18 -8 -20 -10 -16 -5 -23 -25 -2 27 -27 29 -29
right_child=7 2 -4 22 5 6 18 8 20 11 15 -13 13 -15 21 -17 17 -19 19 -21 -22 23 -24 24 -26 26 -28 28 -30 -31
leaf_value=-13.784992873574659 -19.063321279054765 -34.863272070884705 -8.2722400668763765 -42.905712482541105 198.78205777681794 156.45387251377107 70.614138449692149 133.14364806144468 -2.3129662355304932 63.096129053831106 16.337472310559502 52.010715262403771 -12.75217363694135 83.882296895045869 172.04458983421327 -77.165846169211648 124.17296340529984 17.192797506772557 69.9057627360026 156.71733825034704 33.9096902876028 55.134208289782208 25.881110735637385 186.1253829084124 91.778522540583765 -17.931596167326727 67.559882203737899 39.36154843655379 -15.099841983769318 -2.3133265988453071
leaf_weight=317 1958 32 274 43 26 48 41 31 614 64 29 103 34 51 40 55 37 26 21 97 112 24 41 35 66 1266 24 179 867 453
leaf_count=317 1958 32 274 43 26 48 41 31 614 64 29 103 34 51 40 55 37 26 21 97 112 24 41 35 66 1266 24 179 867 453
internal_value=6.70901e-08 39.2251 53.382 71.885 80.1144 84.7308 80.8847 -10.7185 8.59336 69.9303 45.0903 90.8796 83.6511 45.2285 108.362 -44.8849 113.074 80.0224 123.049 141.268 3.2751 125.92 -9.33119 111.16 124.473 -13.7981 -10.1017 -10.7758 -4.73234 9.49016
internal_weight=7008 1504 1187 913 829 797 771 5504 757 612 280 332 196 85 229 84 111 63 159 118 726 165 84 125 101 4747 2789 2765 1499 632
internal_count=7008 1504 1187 913 829 797 771 5504 757 612 280 332 196 85 229 84 111 63 159 118 726 165 84 125 101 4747 2789 2765 1499 632
is_linear=0
shrinkage=0.1


Tree=15
num_leaves=31
num_cat=0
split_feature=4 8 8 6 6 3 2 8 8 6 7 7 1 7 1 3 2 7 6 6 7 3 7 3 3 10 8 8 6 6
split_gain=2.38658e+08 9.14236e+07 1.10603e+08 4.25021e+07 3.52221e+07 2.6837e+07 2.61294e+07 2.5551e+07 2.46592e+07 1.80127e+07 1.70405e+07 2.59713e+07 1.67401e+07 1.6927e+07 1.52914e+07 1.31871e+07 2.63976e+07 1.19457e+07 1.1649e+07 1.00471e+07 9.9134e+06 9.43447e+06 9.39322e+06 8.89841e+06 8.54763e+06 1.48851e+07 1.17989e+07 2.02059e+07 2.0704e+07 1.17981e+07
threshold=-0.8828243227764766 -0.29115023109147664 0.72266760937015628 0.86125503803327519 -1.171349943481222 1.0164588752466182 -1.2203631117552909 1.0000000180025095e-35 1.1571609695679992 0.28051075760056171 -1.5019098702685956 -1.0478135807429603 0.70820850148485393 1.1091437945038076 -0.04171361516805993 1.0000000180025095e-35 0.4690876285576433 1.2226678668852164 -0.30023352283215182 -0.8809778032648653 0.6550475049781721 0.41257317726611681 -1.5019098702685956 1.4628091737539448 -0.51951126961683036 2.2992935545552267 -0.29115023109147664 0.57783648930420872 -0.59060566304850848 -1.171349943481222
decision_type=2 2 2 2 2 2 2 2 2 2 2 2 2 2 2 2 2 2 2 2 2 2 2 2 2 2 2 2 2 2
left_child=1 -1 3 4 -3 24 -7 -6 17 10 -9 18 14 15 -13 -14 -17 19 -12 -4 -11 -5 -8 -24 -2 26 -26 28 29 -28
right_child=5 2 8 21 7 6 22 9 -10 20 11 12 13 -15 -16 16 -18 -19 -20 -21 -22 -23 23 -25 25 -27 27 -29 -30 -31
leaf_value=-12.406493726062473 -16.114985347322545 -30.445463044302809 -30.518599206209185 -40.295705211863805 48.120958549297413 115.21442365231722 60.851266422271728 163.19617162633824 -17.356029065924499 116.83060447753422 -24.378162841796879 92.809770031364607 166.1986141204834 150.65912088285532 10.043081041661706 99.403224737682038 -7.9408701760428286 84.961073931525732 67.073450078757915 30.369472304710559 194.80271162553268 33.158558230929906 -2.5540076583555376 32.313511363349178 -15.510149628565252 78.128234539031993 1.956886978149414 -11.611591474372959 4.9023383223718131 83.722450377146401
leaf_weight=317 2514 28 32 34 151 23 30 27 201 63 30 49 20 62 41 126 28 34 26 177 22 36 435 88 1199 20 25 743 367 60
leaf_count=317 2514 28 32 34 151 23 30 27 201 63 30 49 20 62 41 126 28 34 26 177 22 36 435 88 1199 20 25 743 367 60
internal_value=-1.79043e-08 35.3026 48.0438 71.6407 79.3542 -9.64664 10.7779 84.1207 8.55612 95.1247 86.4196 80.993 91.7998 105.794 55.1049 89.8071 79.8861 29.9896 18.0815 21.0469 137.012 -2.51923 6.43424 3.3128 -12.0339 -7.7838 -8.50153 -1.46944 15.2023 59.6738
internal_weight=7008 1504 1187 743 673 5504 576 645 444 494 409 382 326 236 90 174 154 243 56 209 85 70 553 523 4928 2414 2394 1195 452 85
internal_count=7008 1504 1187 743 673 5504 576 645 444 494 409 382 326 236 90 174 154 243 56 209 85 70 553 523 4928 2414 2394 1195 452 85
is_linear=0
shrinkage=0.1


Tree=16
num_leaves=31
num_cat=0
split_feature=4 8 8 6 6 7 2 3 2 8 8 3 6 7 6 3 3 4 10 3 3 8 3 7 6 6 2 7 0 8
split_gain=1.9347e+08 7.64701e+07 9.36327e+07 4.01632e+07 3.03986e+07 2.31402e+07 2.51317e+07 2.11761e+07 3.58148e+07 1.92022e+07 2.43458e+07 1.82992e+07 1.62165e+07 1.45053e+07 1.29021e+07 1.52741e+07 1.43531e+07 1.17077e+07 1.04917e+07 1.02822e+07 1.01576e+07 9.79823e+06 9.21921e+06 8.70628e+06 1.91699e+07 1.30152e+07 8.41646e+06 7.39194e+06 1.01079e+07 7.26804e+06
threshold=-0.83103432734689731 -0.29115023109147664 1.0123298495020514 0.86125503803327519 -1.171349943481222 -1.6154339426500044 1.1652039058162174 0.84579552581734607 -1.1890769869346782 0.57783648930420872 1.0000000180025095e-35 0.71451602625636756 -0.8809778032648653 1.1091437945038076 0.28051075760056171 1.0000000180025095e-35 1.7778799727002934 -2.0739942176568014 2.2256285115731713 0.46508497709050828 1.5547048234466299 0.28817424917231355 1.7778799727002934 1.3361919392666253 -0.30023352283215182 -0.59060566304850848 1.0000000180025095e-35 -0.36666914645450749 0.31110645565080569 -0.58081247122337176
decision_type=2 2 2 2 2 2 2 2 2 2 2 2 2 2 2 2 2 2 2 2 2 2 2 2 2 2 2 2 2 2
left_child=1 -1 3 4 -3 -6 9 -2 -9 10 -7 -8 -11 22 15 -12 17 21 -5 -20 29 -17 27 24 25 -19 -26 -14 -29 -10
right_child=7 2 -4 18 5 6 11 8 20 12 14 -13 13 -15 -16 16 -18 23 19 -21 -22 -23 -24 -25 26 -27 -28 28 -30 -31
leaf_value=-10.913400027835578 -11.793823165960696 -24.069348886850719 -7.4574410248301177 -35.929742377758025 159.63797584816263 45.088570798558301 62.699140777587893 94.943379901704347 -15.719955900866722 -16.635387148175919 142.56356435060502 -66.816277217864993 28.839260623140156 111.86102815285709 132.50180518459268 143.34156929298683 116.38088706623424 31.453872454961143 -17.611994970412482 81.345629592168905 48.497263699486147 63.163839187622074 0.08097472319731841 104.22835330054873 42.355296216692246 -71.191642434256423 120.22719122845194 33.16087137419602 110.30244110851754 4.2272299641450513
leaf_weight=342 4492 37 287 50 27 139 20 42 263 35 40 24 53 39 71 27 66 30 21 21 42 35 37 21 35 21 23 29 41 598
leaf_count=342 4492 37 287 50 27 139 20 42 263 35 40 24 53 39 71 27 66 30 21 21 42 35 37 21 35 21 23 29 41 598
internal_value=-9.58369e-09 30.9101 42.5486 57.7839 64.5771 68.6115 65.4846 -8.93136 4.67518 69.839 80.7571 -7.94563 46.1363 57.1765 94.1933 85.0661 76.1517 62.3229 -4.97914 31.8668 0.476656 98.0799 43.8471 45.2696 33.9106 -10.8119 73.2355 57.0126 78.3438 -1.86581
internal_weight=7008 1571 1229 942 850 813 786 5437 945 742 508 44 234 199 369 298 258 192 92 42 903 62 160 130 109 51 58 123 70 861
internal_count=7008 1571 1229 942 850 813 786 5437 945 742 508 44 234 199 369 298 258 192 92 42 903 62 160 130 109 51 58 123 70 861
is_linear=0
shrinkage=0.1


Tree=17
num_leaves=31
num_cat=0
split_feature=1 8 3 8 8 3 3 8 8 7 8 3 8 8 0 3 4 6 8 8 6 6 6 4 6 6 10 10 0 0
split_gain=1.60274e+08 6.36351e+07 4.39661e+07 4.15431e+07 2.91772e+07 1.68125e+07 1.54344e+07 1.40495e+07 1.28561e+07 1.5411e+07 1.51452e+07 1.22741e+07 1.06214e+07 1.04197e+07 9.38333e+06 9.24666e+06 9.19687e+06 8.39504e+06 1.14461e+07 3.00031e+07 3.0997e+07 2.42903e+07 2.41019e+07 1.50098e+07 8.02806e+06 3.66445e+07 1.73769e+07 1.00753e+07 8.54423e+06 1.66878e+07
threshold=0.33324744315839699 1.0000000180025095e-35 0.11063032827586633 0.57783648930420872 0.14334312910636596 1.0427147751588139 0.95081912546612879 1.0123298495020514 1.3019920896339465 -0.13962100169168984 1.0000000180025095e-35 1.7778799727002934 0.43300536923826111 -0.43598135115742426 0.617254604383635 -0.48012741974853684 -2.3329441948046985 0.86125503803327519 -0.29115023109147664 0.86749872943610384 -1.171349943481222 -0.59060566304850848 -0.30023352283215182 -0.20955438219194497 -0.59060566304850848 -0.30023352283215182 2.2256285115731713 2.2865148537833799 1.0000000180025095e-35 0.80094349362333239
decision_type=2 2 2 2 2 2 2 2 2 2 2 2 2 2 2 2 2 2 2 2 2 2 2 2 2 2 2 2 2 2
left_child=5 6 4 11 15 17 -2 14 9 10 -7 24 -12 -8 16 -3 -5 18 -1 20 -20 -22 -23 -24 27 -26 28 -4 -27 -30
right_child=1 2 3 7 -6 8 13 -9 -10 -11 12 -13 -14 -15 -16 -17 -18 -19 19 -21 21 22 23 -25 25 26 -28 -29 29 -31
leaf_value=-12.510977368094728 -12.425603204490415 39.014796389066255 76.608243257658827 81.173264482498169 -8.600166501355643 -8.8227425265956576 -12.642264438397957 1.0655346723360437 -22.609232166290283 3.7356305534511693 114.63699062101303 114.8273278001067 43.321714332699777 34.096695899408921 67.545270930084527 128.23128785632906 13.494589558769675 -15.920326677733224 -12.792177127675618 -12.956012983477635 59.087869658577915 -40.045799614401432 81.132448654951062 14.919928298251969 -24.840501406134631 22.208969493244972 123.37952800187909 159.29344455718996 131.28033016429228 41.183781445943396
leaf_weight=1806 323 26 56 25 202 37 66 107 100 269 31 77 64 172 102 21 102 1528 267 920 177 68 43 168 41 43 61 20 34 52
leaf_count=1806 323 26 56 25 202 37 66 107 100 269 31 77 64 172 102 21 102 1528 267 920 177 68 43 168 41 43 61 20 34 52
internal_value=-4.29287e-08 28.6154 44.1329 56.6595 7.91168 -7.99226 1.81243 30.9804 9.46878 17.4683 45.4537 79.1286 66.593 21.1355 44.9581 78.8775 26.8172 -9.74994 -7.01629 -0.976483 14.2672 30.1111 11.7281 28.4135 70.1749 60.8994 79.4012 98.3675 58.6052 76.8033
internal_weight=7008 1530 969 720 249 5478 561 336 501 401 132 384 95 238 229 47 127 4977 3449 1643 723 456 279 211 307 231 190 76 129 86
internal_count=7008 1530 969 720 249 5478 561 336 501 401 132 384 95 238 229 47 127 4977 3449 1643 723 456 279 211 307 231 190 76 129 86
is_linear=0
shrinkage=0.1


Tree=18
num_leaves=31
num_cat=0
split_feature=4 8 8 6 6 7 2 3 2 8 8 6 3 7 10 1 3 7 3 4 8 8 8 6 7 7 3 0 3 6
split_gain=1.30136e+08 5.02358e+07 6.17847e+07 2.74337e+07 2.08706e+07 1.63483e+07 1.72626e+07 1.46917e+07 2.67016e+07 1.44848e+07 1.09563e+07 1.22946e+07 8.66977e+06 1.22319e+07 1.56282e+07 1.39191e+07 1.00966e+07 8.4578e+06 8.03877e+06 7.97374e+06 7.30165e+06 7.21977e+06 1.28798e+07 9.03337e+06 1.78406e+07 6.78716e+06 1.04062e+07 6.48029e+06 8.89531e+06 6.42528e+06
threshold=-0.8828243227764766 -0.29115023109147664 0.72266760937015628 0.86125503803327519 -1.171349943481222 -1.6154339426500044 1.1652039058162174 0.84579552581734607 -1.2203631117552909 1.1571609695679992 1.0000000180025095e-35 0.28051075760056171 1.0000000180025095e-35 1.1091437945038076 2.2884339738811805 0.8488188983572752 0.41257317726611681 1.2226678668852164 1.3709135240612598 -1.4525142725018496 0.28817424917231355 1.3019920896339465 -0.58081247122337176 -0.30023352283215182 0.88209564974098975 1.0000000180025095e-35 0.41257317726611681 0.24987682590423974 1.5021930236222383 -0.8809778032648653
decision_type=2 2 2 2 2 2 2 2 2 2 2 2 2 2 2 2 2 2 2 2 2 2 2 2 2 2 2 2 2 2
left_child=1 -1 3 4 -3 -6 10 -2 -9 17 -7 12 20 14 16 -15 -14 29 -13 -20 -12 22 -10 24 -24 26 -5 28 -18 -4
right_child=7 2 9 25 5 6 -8 8 21 -11 11 18 13 15 -16 -17 27 -19 19 -21 -22 -23 23 -25 -26 -27 -28 -29 -30 -31
leaf_value=-9.2968989633987373 -9.511572171150652 -25.173357772827149 -26.334559965133668 -34.511670074462891 149.79967466990155 39.458244528489956 -5.2204146134225944 85.115277569110575 -13.25957640956219 -13.85970376332601 142.59513495763142 157.15393889054008 8.479984230744213 19.633655791282656 -29.830594571431476 115.96324652353923 81.771018117268881 68.682008953655469 129.88843493652345 55.016688880775916 66.10538037373469 -19.124139277656358 -75.305107362808727 18.743246669689814 33.814051725124493 -45.727052858140738 64.116681704313862 80.403479891960785 8.9288891792297367 22.357417073513325
leaf_weight=317 4535 28 32 20 21 136 38 39 266 201 24 23 38 20 24 60 30 34 25 33 26 154 31 450 29 27 23 109 38 177
leaf_count=317 4535 28 32 20 21 136 38 39 266 201 24 23 38 20 24 60 30 34 25 33 26 154 31 450 29 27 23 109 38 177
internal_value=-4.02067e-08 26.0685 35.5132 53.1497 59.3468 63.0159 60.0953 -7.12337 4.0536 5.99988 64.3308 71.8478 64.1035 58.035 46.7059 91.8808 55.2495 22.4269 107.127 87.289 102.82 0.654242 4.57933 13.8835 -22.5642 -6.43114 18.243 65.2904 41.0651 14.9022
internal_weight=7008 1504 1187 743 673 645 624 5504 969 444 586 450 369 319 239 80 215 243 81 58 50 930 776 510 60 70 43 177 68 209
internal_count=7008 1504 1187 743 673 645 624 5504 969 444 586 450 369 319 239 80 215 243 81 58 50 930 776 510 60 70 43 177 68 209
is_linear=0
shrinkage=0.1


Tree=19
num_leaves=31
num_cat=0
split_feature=1 8 3 8 8 4 8 8 0 6 2 7 3 8 3 0 8 6 4 3 7 4 10 6 6 10 10 2 4 3
split_gain=1.08387e+08 4.48152e+07 2.93812e+07 2.92248e+07 2.22355e+07 1.10759e+07 1.18988e+07 2.9495e+07 1.18862e+07 1.66148e+07 1.16644e+07 1.24886e+07 1.06639e+07 9.695e+06 9.14038e+06 7.50975e+06 7.29741e+06 7.33494e+06 9.05906e+06 7.09986e+06 7.05284e+06 6.99876e+06 6.84311e+06 6.72018e+06 2.69171e+07 1.49359e+07 8.11428e+06 7.885e+06 1.16208e+07 7.04117e+06
threshold=0.33324744315839699 1.0000000180025095e-35 0.11063032827586633 0.57783648930420872 0.14334312910636596 -0.36492436848068305 -0.58081247122337176 0.72266760937015628 0.98463238286303001 0.86125503803327519 0.66462590868645555 -0.36666914645450749 0.95081912546612879 1.0123298495020514 1.7778799727002934 0.617254604383635 -0.43598135115742426 -0.30023352283215182 -1.5043042679314287 -0.48012741974853684 -0.70724136359873391 -2.3329441948046985 2.1376615096475526 -0.59060566304850848 -0.30023352283215182 2.2815144926117874 2.2865148537833799 -1.1890769869346782 -1.4007242770722701 1.5940886733149233
decision_type=2 2 2 2 2 2 2 2 2 2 2 2 2 2 2 2 2 2 2 2 2 2 2 2 2 2 2 2 2 2
left_child=5 12 4 14 19 6 -1 8 9 10 11 -8 -2 15 23 21 -14 -18 -19 -3 -17 -5 -15 26 -25 27 -4 -26 29 -29
right_child=1 2 3 13 -6 -7 7 -9 -10 -11 -12 -13 16 22 -16 20 17 18 -20 -21 -22 -23 -24 24 25 -27 -28 28 -30 -31
leaf_value=-12.504742642831522 -10.796070192493614 33.965321034651538 64.18031017993178 68.055933868408204 -7.4704007152873686 -8.7219633875893869 -1.8299616452809926 -7.4226773269778619 -0.52308994200494563 -17.829258659306696 128.41499078841437 64.309240143203738 -11.167049475872156 -19.92233913128193 96.44639200978466 15.354248329688765 -25.97495620033958 77.315548508251325 21.289051310221353 112.14207515943617 73.647967905540995 9.0164969762166347 31.866640617733914 -24.05709338304473 104.07397042733652 139.02130381266278 138.38352851867677 100.00231337774369 17.125623193052082 32.972939361572266
leaf_weight=338 323 26 56 25 202 4459 37 392 72 34 21 125 66 65 77 29 22 39 111 21 73 102 42 41 27 24 20 42 72 25
leaf_count=338 323 26 56 25 202 4459 37 392 72 34 21 125 66 65 77 29 22 39 111 21 73 102 42 41 27 24 20 42 72 25
internal_value=-1.97831e-08 23.5318 36.5541 46.7943 6.94402 -6.57242 2.83367 10.4466 34.6844 46.3662 58.2932 49.2034 1.03883 25.2563 65.64 36.8675 17.1005 27.9473 35.8559 68.8954 57.0743 20.6384 0.406045 57.9134 49.427 65.2841 83.7075 54.6233 45.0177 74.9914
internal_weight=7008 1530 969 720 249 5478 1019 681 289 217 183 162 561 336 384 229 238 172 150 47 102 127 107 307 231 190 76 166 139 67
internal_count=7008 1530 969 720 249 5478 1019 681 289 217 183 162 561 336 384 229 238 172 150 47 102 127 107 307 231 190 76 166 139 67
is_linear=0
shrinkage=0.1


Tree=20
num_leaves=31
num_cat=0
split_feature=1 8 3 8 8 3 2 6 8 7 0 3 7 7 7 0 8 3 7 2 6 6 3 6 8 4 10 3 4 7
split_gain=8.77931e+07 3.63003e+07 2.37988e+07 2.36721e+07 1.80108e+07 9.73996e+06 1.20694e+07 8.81815e+06 1.31224e+07 7.9852e+06 8.6722e+06 7.40371e+06 6.93757e+06 6.86581e+06 7.61441e+06 6.4882e+06 6.03344e+06 5.75089e+06 5.64626e+06 8.05889e+06 5.61853e+06 9.41404e+06 5.90874e+06 6.69103e+06 8.82042e+06 5.68827e+06 5.48548e+06 1.52239e+07 1.05523e+07 5.86738e+06
threshold=0.33324744315839699 1.0000000180025095e-35 0.11063032827586633 0.57783648930420872 0.14334312910636596 0.79328372599295449 -1.2438277053707492 0.86125503803327519 -0.43598135115742426 1.2226678668852164 0.55602497463706901 1.7778799727002934 1.6767641564108517 -0.70724136359873391 -1.2748617255057779 -0.17873058232172132 0.43300536923826111 -0.48012741974853684 0.76857157735958093 0.10929719312063159 -0.30023352283215182 1.0000000180025095e-35 0.38631727735392124 -1.171349943481222 -0.14631911102552914 -1.4007242770722701 2.2837368753547174 0.87205142572954164 -2.2293642039455395 1.0000000180025095e-35
decision_type=2 2 2 2 2 2 2 2 2 2 2 2 2 2 2 2 2 2 2 2 2 2 2 2 2 2 2 2 2 2
left_child=5 7 4 11 17 -1 -7 8 -2 10 -5 26 -8 14 -12 -6 -17 -3 19 -13 22 -22 23 -10 -25 -23 28 -28 -4 -30
right_child=1 2 3 9 15 6 12 -9 20 -11 13 18 -14 -15 -16 16 -18 -19 -20 -21 21 25 -24 24 -26 -27 27 -29 29 -31
leaf_value=-8.0095437334249322 -14.784592318405277 30.568788176316481 99.588930271517853 0.6331504654884339 -20.789564886474611 63.075113773345947 -0.53299941128408201 -29.152277774121387 -26.727399381001788 57.575997647372162 46.996699075698857 113.9968937960538 52.782838874816889 53.164619488716134 -39.218811216808504 55.315855466402496 -3.8752061320286177 100.9278680347261 125.85584899902345 34.31357031504313 72.051605331066057 52.8993336647749 -25.724515741521664 6.7704301476478577 80.552057413871466 3.1874150252923736 130.27674790700277 33.82221607632107 53.48697745421223 20.050440233193555
leaf_weight=4394 184 26 31 160 125 32 1027 83 24 55 20 22 25 80 21 26 51 21 25 30 43 32 44 43 26 82 30 36 107 103
leaf_count=4394 184 26 31 160 125 32 1027 83 24 55 20 22 25 80 21 26 51 21 25 30 43 32 44 43 26 82 30 36 107 103
internal_value=-3.78688e-08 21.1787 32.8987 42.1148 6.24962 -5.91518 2.57434 0.934951 6.1593 22.7306 15.9104 59.076 0.734012 36.1116 2.83754 -6.72336 16.1114 62.0058 86.8018 68.0257 19.267 32.1807 4.46822 18.753 34.5722 17.1416 52.122 77.6652 45.1268 37.0872
internal_weight=7008 1530 969 720 249 5478 1084 561 478 336 281 384 1052 121 41 202 77 47 77 52 294 157 137 93 69 114 307 66 241 210
internal_count=7008 1530 969 720 249 5478 1084 561 478 336 281 384 1052 121 41 202 77 47 77 52 294 157 137 93 69 114 307 66 241 210
is_linear=0
shrinkage=0.1


Tree=21
num_leaves=31
num_cat=0
split_feature=4 8 8 6 6 2 7 6 3 8 6 8 3 4 3 2 7 1 6 0 6 6 7 3 8 8 6 7 2 4
split_gain=7.27119e+07 3.51591e+07 4.08783e+07 3.30048e+07 1.80951e+07 1.68017e+07 1.86139e+07 2.52043e+07 1.05571e+07 1.02934e+07 1.30656e+07 9.67032e+06 1.53822e+07 1.37408e+07 9.06709e+06 8.43045e+06 9.89764e+06 7.53626e+06 1.0605e+07 7.05197e+06 1.14275e+07 7.28547e+06 7.2931e+06 5.79527e+06 8.16944e+06 1.43632e+07 9.34785e+06 1.16863e+07 1.01029e+07 7.97277e+06
threshold=-0.6238743456285798 -0.43598135115742426 0.86749872943610384 0.86125503803327519 -1.4617220836975786 1.4311359667914001 -1.5019098702685956 1.0000000180025095e-35 1.6072166232710212 1.0000000180025095e-35 0.28051075760056171 0.43300536923826111 -0.15192867084609066 -2.2293642039455395 0.45195702713441049 -0.41474539762458401 1.3361919392666253 2.0674423379182603 -0.30023352283215182 0.12741756641110794 -0.8809778032648653 1.0000000180025095e-35 0.99561972212239869 -0.51951126961683036 -0.58081247122337176 1.0123298495020514 0.86125503803327519 -1.5019098702685956 0.16404791155669812 1.0334055081179601
decision_type=2 2 2 2 2 2 2 2 2 2 2 2 2 2 2 2 2 2 2 2 2 2 2 2 2 2 2 2 2 2
left_child=1 -1 3 4 -3 6 7 -6 23 -8 11 12 -11 -14 -7 -15 -17 -4 -19 21 -21 22 -13 -2 -25 26 27 -26 29 -29
right_child=8 2 17 -5 5 14 9 -9 -10 10 -12 19 13 15 -16 16 -18 18 -20 20 -22 -23 -24 24 25 -27 -28 28 -30 -31
leaf_value=-10.963168841131619 -9.8566117346653357 -53.020226917266854 -8.1224940018897716 -15.531286757978899 179.44263127644857 32.603396263122555 24.465123627687756 40.903958550814927 64.732765438443138 118.32535121020149 80.567855995568365 -3.320966993059431 111.18008858816964 -6.6818747398015619 -58.56402854919434 35.593079176330569 106.97329857867697 -18.476805193670867 60.539071785531398 -10.787893821253922 56.523972551399304 -40.033835513775166 72.37775753259659 -10.027465833202427 66.254144952355361 -10.875651988622643 -6.3778661880120397 27.683578860309236 -3.2827512363662992 -7.7271143858249376
leaf_weight=356 2439 20 352 116 24 20 228 29 21 34 110 35 28 37 24 125 23 29 41 33 107 26 20 1058 41 620 307 344 283 78
leaf_count=356 2439 20 352 116 24 20 228 29 21 34 110 35 28 37 24 125 23 29 41 33 107 26 20 1058 41 620 307 344 283 78
internal_value=-1.45937e-08 17.2169 24.0834 34.7437 41.0622 43.1459 46.2331 103.638 -6.0264 42.4583 49.556 42.2669 55.864 45.8936 -17.1243 36.0124 46.686 -2.16314 27.8039 27.0702 40.6576 3.5857 24.2058 -6.31381 -3.14981 1.1996 8.30943 14.3537 11.3353 21.1385
internal_weight=7008 1817 1461 1039 923 903 859 53 5191 806 578 468 247 213 44 185 148 422 70 221 140 81 55 5170 2731 1673 1053 746 705 422
internal_count=7008 1817 1461 1039 923 903 859 53 5191 806 578 468 247 213 44 185 148 422 70 221 140 81 55 5170 2731 1673 1053 746 705 422
is_linear=0
shrinkage=0.1


Tree=22
num_leaves=31
num_cat=0
split_feature=4 3 2 6 4 7 8 8 8 4 8 8 2 6 6 2 3 8 3 3 8 10 3 10 0 2 2 6 0 8
split_gain=5.91444e+07 2.1455e+07 1.48791e+07 1.37924e+07 1.36496e+07 1.33488e+07 1.18537e+07 1.10919e+07 1.09589e+07 1.0703e+07 1.05988e+07 1.29486e+07 1.36533e+07 1.04001e+07 1.23897e+07 1.35123e+07 1.1414e+07 8.75043e+06 7.79404e+06 7.44991e+06 6.93084e+06 6.32122e+06 6.23696e+06 6.17846e+06 8.24759e+06 7.4294e+06 5.97673e+06 6.08021e+06 1.36255e+07 5.38975e+06
threshold=-1.0899843044947939 1.1477383748075967 0.7819488767637427 -0.59060566304850848 -1.7114642496497463 -1.5019098702685956 0.43300536923826111 1.0000000180025095e-35 1.3019920896339465 -0.36492436848068305 -0.43598135115742426 0.86749872943610384 -1.1499693309089156 0.86125503803327519 -1.171349943481222 0.70373356471221793 0.11063032827586633 1.0000000180025095e-35 0.15001417814415982 0.62262037656368252 0.57783648930420872 2.2770697271259275 0.58323652669538906 2.2770697271259275 0.066187936664542132 -0.41474539762458401 -0.66503439618946703 1.0000000180025095e-35 -0.30118984181485281 0.43300536923826111
decision_type=2 2 2 2 2 2 2 2 2 2 2 2 2 2 2 2 2 2 2 2 2 2 2 2 2 2 2 2 2 2
left_child=1 3 8 4 6 19 7 -1 17 10 -2 12 22 14 -14 16 -16 -3 -9 -5 23 -6 -12 25 -25 -19 -18 -28 -29 -30
right_child=9 2 -4 5 21 -7 -8 18 -10 -11 11 -13 13 -15 15 -17 26 20 -20 -21 -22 -23 -24 24 -26 -27 27 28 29 -31
leaf_value=14.898335688454765 -10.377208450317383 15.724713050877606 -44.276258186672045 2.4576092856270928 -3.677077521652472 -16.105586686044372 16.057934533556303 140.23872593470983 -29.618899768331779 -6.2342823377073939 39.144814663841615 -6.9260635497241188 -22.974478467305502 -18.39938820430211 66.276957500945116 92.113656483274525 -33.533779684702559 30.869444003701211 64.674711767221112 86.690325741540832 33.896977749783943 47.342509610312334 117.17342809677126 -15.83785102150657 63.207530119924833 82.766784794451837 -7.9056411465731529 -21.484902897301843 33.714689758309611 85.011461801239946
leaf_weight=28 300 108 23 21 183 265 96 21 23 4780 21 232 48 70 51 33 24 36 39 21 188 28 20 22 33 118 55 34 54 33
leaf_count=28 300 108 23 21 183 265 96 21 23 4780 21 232 48 70 51 33 24 36 39 21 188 28 20 22 33 118 55 34 54 33
internal_value=-1.36343e-08 19.6882 34.4583 8.09523 20.4525 -7.80415 40.3589 66.8691 37.888 -4.2866 5.26206 12.2128 22.2359 16.6294 24.015 31.9568 24.0478 40.9626 91.1221 44.574 47.8283 3.09329 77.2076 60.3598 31.5894 70.6349 13.2793 19.6629 32.1941 53.1721
internal_weight=7008 1253 551 702 395 307 184 88 528 5755 975 675 443 402 332 284 251 505 60 42 397 211 41 209 55 154 200 176 121 87
internal_count=7008 1253 551 702 395 307 184 88 528 5755 975 675 443 402 332 284 251 505 60 42 397 211 41 209 55 154 200 176 121 87
is_linear=0
shrinkage=0.1


Tree=23
num_leaves=31
num_cat=0
split_feature=4 3 6 2 7 6 10 7 4 0 4 8 8 3 7 0 1 0 4 2 4 3 3 0 1 0 0 0 4 0
split_gain=4.7907e+07 1.73786e+07 1.28386e+07 2.18022e+07 2.44509e+07 1.11718e+07 1.13934e+07 1.08125e+07 1.00686e+07 1.00198e+07 8.9887e+06 9.00132e+06 1.34984e+07 1.47768e+07 1.0262e+07 1.01375e+07 8.23514e+06 6.83378e+06 8.01972e+06 6.08577e+06 6.91431e+06 6.03442e+06 6.00474e+06 5.85374e+06 5.47117e+06 5.55884e+06 5.72094e+06 5.25281e+06 5.04048e+06 5.03335e+06
threshold=-1.0899843044947939 1.1477383748075967 -0.30023352283215182 0.16404791155669812 0.99561972212239869 -0.59060566304850848 2.2770697271259275 -1.5019098702685956 -2.3329441948046985 0.73971386387676652 -0.15776438676236562 -0.58081247122337176 0.86749872943610384 -0.82145411860708084 -1.2748617255057779 -0.11750095257515543 0.56759810461243254 1.7193879398218204 -2.2293642039455395 -1.1030401436780035 -0.57208435019900039 0.62262037656368252 0.97707502537832458 2.2704546075409131 1.3175202212653463 0.80094349362333239 -0.36241947156141874 1.7806175695683859 -1.9186242313680637 -0.42364910130798467
decision_type=2 2 2 2 2 2 2 2 2 2 2 2 2 2 2 2 2 2 2 2 2 2 2 2 2 2 2 2 2 2
left_child=1 5 3 -3 -5 6 8 21 -1 -8 11 -2 13 -13 15 -15 29 18 -18 20 -16 -7 -17 -10 25 26 -21 -27 -9 -4
right_child=10 2 16 4 -6 7 9 28 23 -11 -12 12 -14 14 19 22 17 -19 -20 24 -22 -23 -24 -25 -26 27 -28 -29 -30 -31
leaf_value=57.563574856083562 -9.7579041211016779 80.322763411204022 49.333010619027277 -84.855858863027478 31.874086918550383 2.2118478956676664 26.617090885262741 -42.407676843496475 8.9713590097071521 110.24268652874491 -6.0680235993528377 -14.731146612323698 -8.0751844550834271 12.559686477095994 12.668468724126402 52.257506651878366 80.822092632914703 87.234282346452986 34.370600090714269 11.895845416829557 88.641787475585943 78.021290915352964 128.81972749346778 -41.624302795410159 0.064859864996664171 -22.610146468026301 47.169840295965024 36.035754982630415 -7.6806727102664709 -0.35338235727945966
leaf_weight=41 385 24 28 38 34 21 38 52 268 23 4384 122 334 27 23 20 43 35 274 79 25 21 21 25 159 42 110 24 213 75
leaf_count=41 385 24 28 38 34 21 38 52 268 23 4384 122 334 27 23 20 43 35 274 79 25 21 21 25 159 42 110 24 213 75
internal_value=-4.00368e-08 17.7194 31.0124 -2.21935 -29.7334 7.28571 18.4072 -7.02373 11.1492 58.1481 -3.85794 3.20918 8.2724 16.6468 23.8696 60.1394 38.024 45.3014 40.6716 18.5312 52.2379 40.1166 91.4723 4.65432 14.6232 23.7007 32.4257 -1.28436 -14.495 13.1536
internal_weight=7008 1253 551 96 72 702 395 307 334 61 5755 1371 986 652 530 68 455 352 317 462 48 42 41 293 414 255 189 66 265 103
internal_count=7008 1253 551 96 72 702 395 307 334 61 5755 1371 986 652 530 68 455 352 317 462 48 42 41 293 414 255 189 66 265 103
is_linear=0
shrinkage=0.1


Tree=24
num_leaves=31
num_cat=0
split_feature=4 8 8 8 6 6 4 8 8 3 6 2 7 2 7 7 7 1 1 7 7 7 6 10 0 7 3 8 1 0
split_gain=3.88046e+07 1.51129e+07 2.3761e+07 1.55281e+07 1.47433e+07 1.38652e+07 7.28085e+06 7.29107e+06 1.09337e+07 1.20233e+07 8.83471e+06 1.17575e+07 6.38818e+06 1.04538e+07 6.3036e+06 8.13095e+06 6.05355e+06 4.7961e+06 1.48798e+07 5.35325e+06 6.3848e+06 9.0308e+06 9.4343e+06 6.87708e+06 4.97406e+06 4.30925e+06 4.2757e+06 4.05718e+06 3.95931e+06 4.58932e+06
threshold=-1.0899843044947939 1.1571609695679992 1.0000000180025095e-35 0.43300536923826111 0.86125503803327519 -0.8809778032648653 -0.15776438676236562 -0.58081247122337176 0.86749872943610384 -0.86083796847537442 1.1516271782496321 -1.1030401436780035 -1.2748617255057779 0.41433691012158125 -1.5019098702685956 1.1091437945038076 1.4497160116480341 -0.04171361516805993 0.56759810461243254 0.99561972212239869 -0.13962100169168984 -1.0478135807429603 -0.30023352283215182 2.2770697271259275 0.98463238286303001 0.6550475049781721 0.95081912546612879 0.14334312910636596 1.1300396921021179 0.55602497463706901
decision_type=2 2 2 2 2 2 2 2 2 2 2 2 2 2 2 2 2 2 2 2 2 2 2 2 2 2 2 2 2 2
left_child=1 2 26 17 5 25 7 -2 9 -9 11 27 13 -13 -7 -16 -17 -4 -19 20 21 22 -20 24 -22 -5 -1 -11 29 -14
right_child=6 -3 3 4 -6 14 -8 8 -10 10 -12 12 28 -15 15 16 -18 18 19 -21 23 -23 -24 -25 -26 -27 -28 -29 -30 -31
leaf_value=-8.5807650051190461 -8.7821137405989997 -12.352827661357274 85.345859312242084 -45.290949704570153 -49.301883494059247 82.890739702141801 -5.461221254004478 -14.675967123656148 -7.2676660393526467 42.509104187011722 -21.741743046587164 8.6559133300781266 33.105366939015504 101.05345660845438 20.142098571924649 94.402321335365045 27.254324813842771 -25.233245113917761 -17.888623017850133 78.564467112850735 65.943304508754181 87.549273193734038 70.034332473461447 -20.816862274169921 7.5414122772216805 6.2600554129656629 12.883039025630163 99.480551673889167 3.618712141778734 2.520172429765974
leaf_weight=227 385 164 31 31 30 23 4384 113 334 25 44 25 164 24 227 29 25 28 23 57 35 56 26 25 25 34 157 25 162 70
leaf_count=227 385 164 31 31 30 23 4384 113 334 25 44 25 164 24 227 29 25 28 23 57 35 56 26 25 25 34 157 25 162 70
internal_value=-6.80718e-08 15.9475 20.2094 31.111 18.1141 23.5951 -3.47214 2.88826 7.44516 14.9821 21.1998 25.0169 19.8508 53.9119 32.5585 28.4387 63.3153 48.0579 43.8545 51.6863 43.6229 60.1163 28.7644 23.2486 41.6092 -18.3258 0.194801 70.9948 15.6362 23.9559
internal_weight=7008 1253 1089 705 399 369 5755 1371 986 652 539 495 445 49 304 281 54 306 275 247 190 105 49 85 60 65 384 50 396 234
internal_count=7008 1253 1089 705 399 369 5755 1371 986 652 539 495 445 49 304 281 54 306 275 247 190 105 49 85 60 65 384 50 396 234
is_linear=0
shrinkage=0.1


Tree=25
num_leaves=31
num_cat=0
split_feature=4 8 8 6 6 3 3 6 6 7 3 2 2 7 7 2 1 1 8 8 8 8 2 2 0 3 10 1 1 3
split_gain=3.15133e+07 1.7654e+07 2.56966e+07 1.55479e+07 1.08205e+07 8.31102e+06 7.14418e+06 6.92875e+06 1.41845e+07 2.7835e+07 9.33936e+06 9.13497e+06 8.58527e+06 7.88265e+06 7.62464e+06 7.37424e+06 6.10811e+06 8.69133e+06 5.63844e+06 5.15244e+06 4.53389e+06 9.91468e+06 4.37071e+06 5.85545e+06 5.12148e+06 4.17188e+06 8.74355e+06 8.04746e+06 4.55671e+06 3.91542e+06
threshold=-0.6238743456285798 -0.29115023109147664 0.72266760937015628 0.86125503803327519 -1.171349943481222 -0.1650566208021885 1.6072166232710212 -0.30023352283215182 -0.59060566304850848 0.99561972212239869 1.2921458243246728 -0.61810520895855026 -0.18792099267516374 -1.2748617255057779 -0.48019321883591631 0.070189537094869164 0.56759810461243254 1.7393514118826101 1.3019920896339465 0.28817424917231355 1.0000000180025095e-35 0.28817424917231355 -0.078419555803030727 -0.28960089834214248 1.7193879398218204 1.8829035723490761 2.2815144926117874 0.89568903064808214 1.9737020733366457 -0.75581436882659159
decision_type=2 2 2 2 2 2 2 2 2 2 2 2 2 2 2 2 2 2 2 2 2 2 2 2 2 2 2 2 2 2
left_child=1 -1 3 4 -3 -6 29 8 11 13 14 -7 16 -10 -9 -14 -12 -18 22 -15 -5 -22 23 24 -4 26 27 -17 -29 -2
right_child=6 2 18 20 5 7 -8 10 9 -11 12 -13 15 19 -16 25 17 -19 -20 -21 21 -23 -24 -25 -26 -27 -28 28 -30 -31
leaf_value=-6.3417199123763162 -7.8050856054954991 -19.591767361289577 -5.9702867671421593 -49.895032353834672 70.473155705264361 -25.448702783584594 54.241114607311431 125.57740615844727 7.2422330162741915 73.017340219431915 -27.756341323544905 46.768720465518065 73.527765126382164 -94.339434164541743 52.520921180486681 67.230150130699414 64.282556843757632 -5.2579037643060458 -15.998923279032295 -30.659265963236493 46.380209922790527 -27.513359335194465 -1.6935226738953792 52.374135943156922 51.408967342376712 5.3884482313946984 84.335258614676349 -27.127639353716816 30.970045262795907 -2.100844603706626
leaf_weight=431 1906 38 70 22 61 20 21 20 22 29 31 141 62 27 50 29 32 41 162 24 30 46 238 41 20 41 35 27 27 3264
leaf_count=431 1906 38 70 22 61 20 21 20 22 29 31 141 62 27 50 29 32 41 162 24 30 46 238 41 20 41 35 27 27 3264
internal_value=5.86576e-08 11.3344 16.8311 27.5616 32.4135 35.1621 -3.96736 31.8886 19.3128 -9.86427 40.2618 37.7976 33.1256 -42.7898 73.3942 44.2751 9.4329 25.2256 -0.446865 -64.3723 -9.91734 1.65515 6.38087 21.0504 6.78066 32.8684 42.4166 24.74 1.9212 -4.2038
internal_weight=7008 1817 1386 855 757 719 5191 658 263 102 395 161 325 73 70 221 104 73 531 51 98 76 369 131 90 159 118 83 54 5170
internal_count=7008 1817 1386 855 757 719 5191 658 263 102 395 161 325 73 70 221 104 73 531 51 98 76 369 131 90 159 118 83 54 5170
is_linear=0
shrinkage=0.1


Tree=26
num_leaves=31
num_cat=0
split_feature=4 8 8 2 8 6 8 8 6 6 6 7 2 6 0 4 8 7 1 2 0 8 2 0 8 10 2 2 8 4
split_gain=2.61241e+07 1.02605e+07 1.49818e+07 1.00824e+07 7.26342e+06 5.9797e+06 9.85561e+06 2.07935e+07 1.91229e+07 2.1216e+07 1.38842e+07 1.05939e+07 9.3773e+06 8.11508e+06 5.93962e+06 7.09145e+06 8.12348e+06 6.72947e+06 9.49264e+06 8.39457e+06 4.60133e+06 7.24354e+06 6.89068e+06 6.87654e+06 7.156e+06 6.94177e+06 6.79887e+06 6.00334e+06 5.73839e+06 5.69848e+06
threshold=-1.0899843044947939 -0.29115023109147664 0.72266760937015628 -1.5019382351407775 1.0000000180025095e-35 1.1516271782496321 -0.29115023109147664 0.86749872943610384 -1.171349943481222 -0.59060566304850848 -0.30023352283215182 1.2226678668852164 -0.52424683449671694 -0.8809778032648653 -0.30118984181485281 0.56729554925174552 0.14334312910636596 -0.36666914645450749 1.0362994275205037 -0.42256692882973829 0.12741756641110794 0.28817424917231355 0.08583259950517326 0.86217312336989815 0.14334312910636596 2.2147480960609101 0.24226322360822297 -0.10188414941848463 0.43300536923826111 -1.9186242313680637
decision_type=2 2 2 2 2 2 2 2 2 2 2 2 2 2 2 2 2 2 2 2 2 2 2 2 2 2 2 2 2 2
left_child=1 -1 3 -3 -5 6 -2 8 -8 12 11 -11 -10 -14 -12 16 -16 18 19 -18 22 23 27 24 -22 -25 -24 28 -6 -28
right_child=5 2 -4 4 20 -7 7 -9 9 10 14 -13 13 -15 15 -17 17 -19 -20 -21 21 -23 26 25 -26 -27 29 -29 -30 -31
leaf_value=-5.5063095737497019 -6.0879452887937893 -39.771218635277314 1.5258066588592145 9.0815499128614157 57.750563115658963 -9.2402544613158284 -7.8366836214481399 -6.4004949831355038 84.050605160849443 -40.428434622915169 3.8369786119346987 41.36952835083008 13.263791911022082 63.221612749428587 11.154977331517124 -0.12666240586174859 48.605170364379887 29.556186426687642 12.583153982595965 128.32901289803644 52.949227083646342 30.078106420495541 -35.636619983400621 12.19785247235685 127.88059430885315 78.192987659999304 -17.638670538021966 81.847700605721315 -14.550997176624481 38.701533656593028
leaf_weight=240 2183 22 372 140 23 1167 344 1165 56 76 209 20 74 58 119 90 25 119 22 28 26 178 28 37 25 28 26 29 21 58
leaf_count=240 2183 22 372 140 23 1167 344 1165 56 76 209 20 74 58 119 90 25 119 22 28 26 178 28 37 25 28 26 29 21 58
internal_value=-3.40985e-09 13.0849 17.4895 26.754 29.1184 -2.8489 -1.22319 3.1925 12.2053 19.9 11.9706 -23.3872 49.7617 35.215 17.5169 24.6114 31.7246 44.342 67.8023 90.7234 34.9746 42.7494 22.6191 62.1933 89.6803 40.6265 7.03802 46.5243 23.243 21.2629
internal_weight=7008 1253 1013 641 619 5755 4588 2405 1240 896 708 96 188 132 612 403 313 194 75 53 479 294 185 116 51 65 112 73 44 84
internal_count=7008 1253 1013 641 619 5755 4588 2405 1240 896 708 96 188 132 612 403 313 194 75 53 479 294 185 116 51 65 112 73 44 84
is_linear=0
shrinkage=0.1


Tree=27
num_leaves=31
num_cat=0
split_feature=4 8 8 7 8 6 6 7 2 6 8 8 6 2 6 7 2 8 8 6 7 4 3 7 0 7 3 7 7 1
split_gain=2.11605e+07 9.21029e+06 1.43704e+07 1.02096e+07 9.27868e+06 9.46819e+06 8.45272e+06 8.26122e+06 6.75253e+06 4.90475e+06 8.00884e+06 1.38267e+07 1.90425e+07 9.78458e+06 7.76525e+06 7.32171e+06 1.40258e+07 5.67404e+06 1.01439e+07 7.63916e+06 4.47119e+06 4.37148e+06 6.49161e+06 7.37878e+06 9.30742e+06 8.74642e+06 6.90939e+06 4.02636e+06 4.66798e+06 4.44085e+06
threshold=-1.0899843044947939 1.1571609695679992 1.0000000180025095e-35 -1.6154339426500044 0.43300536923826111 0.86125503803327519 -0.8809778032648653 -1.2748617255057779 0.96966562568740511 0.86125503803327519 -0.58081247122337176 1.1571609695679992 -1.171349943481222 0.17186944276185237 -0.59060566304850848 -1.3883857978871867 0.67244743989160971 -0.29115023109147664 0.57783648930420872 -0.8809778032648653 -0.36666914645450749 1.0334055081179601 1.2002501746319878 1.4497160116480341 0.43356571514393721 0.20095121545253666 0.46508497709050828 1.1091437945038076 1.4497160116480341 0.38011757544920405
decision_type=2 2 2 2 2 2 2 2 2 2 2 2 2 2 2 2 2 2 2 2 2 2 2 2 2 2 2 2 2 2
left_child=1 2 -1 -4 7 6 -6 -5 27 10 -2 12 -12 14 17 16 -15 -14 20 -20 -19 22 26 24 -24 -26 -16 29 -29 -8
right_child=9 -3 3 4 5 -7 8 -9 -10 -11 11 -13 13 15 21 -17 -18 18 19 -21 -22 -23 23 -25 25 -27 -28 28 -30 -31
leaf_value=-0.46146172837664684 -6.1564247669635952 -10.316502530036903 87.68456803957622 -15.209189494450889 -17.914702889227097 -42.907653630574544 -1.2989790454987558 40.126108539938485 -26.936299392700199 -7.099251538550444 -7.9644577862534405 -8.7373755383119001 4.2394784514968462 -14.248203512338492 -21.077432408540147 -0.38600486244785187 87.750619603906372 47.279701986545469 -5.7604934995824646 62.608450299042921 93.178676808964127 -5.6174312632903458 -1.3140793526690939 -38.307010133804816 89.259822596444025 8.7686234226933237 36.602278617163684 79.098235321044925 20.133481670379638 30.518056513150533
leaf_weight=384 1614 164 24 30 62 30 62 268 25 1686 534 720 37 26 23 438 28 41 44 26 44 80 115 31 27 27 214 29 25 150
leaf_count=384 1614 164 24 30 62 30 62 268 25 1686 534 720 37 26 23 438 28 41 44 26 44 80 115 31 27 27 214 29 25 150
internal_value=-3.70953e-08 11.7764 15.1035 23.5815 21.3224 11.0261 15.6097 34.5554 22.7524 -2.56401 -0.684816 2.91241 7.7469 14.7326 22.2516 3.89735 38.6401 39.4247 47.8238 19.6337 71.0392 15.874 19.8083 6.54066 14.7672 49.0142 31.0047 27.4224 51.7997 21.2131
internal_weight=7008 1253 1089 705 681 383 353 298 291 5755 4069 2455 1735 1201 709 492 54 192 155 70 85 517 437 200 169 54 237 266 54 212
internal_count=7008 1253 1089 705 681 383 353 298 291 5755 4069 2455 1735 1201 709 492 54 192 155 70 85 517 437 200 169 54 237 266 54 212
is_linear=0
shrinkage=0.1


Tree=28
num_leaves=31
num_cat=0
split_feature=4 8 8 7 2 6 2 8 6 2 4 6 6 1 2 6 7 7 6 8 8 6 6 6 2 6 4 4 2 7
split_gain=1.714e+07 7.46034e+06 1.164e+07 8.26982e+06 8.13327e+06 1.22775e+07 7.87284e+06 7.68773e+06 8.28277e+06 5.9011e+06 6.45816e+06 6.10646e+06 8.33838e+06 7.88712e+06 7.39284e+06 5.6216e+06 4.87621e+06 5.31117e+06 4.1099e+06 6.93116e+06 1.91102e+07 9.87557e+06 1.95938e+07 1.07547e+07 5.38344e+06 4.65626e+06 4.60479e+06 4.07443e+06 9.79162e+06 3.89396e+06
threshold=-1.0899843044947939 1.1571609695679992 1.0000000180025095e-35 -1.6154339426500044 0.96966562568740511 -0.59060566304850848 -1.6036181408077652 0.43300536923826111 0.86125503803327519 0.63333978386584733 -2.2293642039455395 -0.30023352283215182 -0.59060566304850848 1.6456111473009962 -0.41474539762458401 -0.8809778032648653 -0.13962100169168984 0.31447528783394552 1.1516271782496321 -0.14631911102552914 0.57783648930420872 -1.171349943481222 -0.59060566304850848 -0.30023352283215182 -0.57117602172763371 -0.8809778032648653 -0.93461431820605589 0.15297558581511053 -1.1890769869346782 1.4497160116480341
decision_type=2 2 2 2 2 2 2 2 2 2 2 2 2 2 2 2 2 2 2 2 2 2 2 2 2 2 2 2 2 2
left_child=1 2 -1 -4 6 -6 -5 9 15 10 -8 12 13 -12 -13 -9 -16 -18 19 -2 21 -21 24 -24 -23 -26 -25 28 -28 -30
right_child=18 -3 3 4 5 -7 7 8 -10 -11 11 14 -14 -15 16 -17 17 -19 -20 20 -22 22 23 26 25 -27 27 -29 29 -31
leaf_value=-0.41531553081392003 -4.7363612833265529 -9.2848522889904856 78.916111977895113 -36.467827493494205 37.112528194080703 -61.954778427913269 79.381831665039073 -10.708744375794023 -43.420964634936794 75.472632468087326 -12.805020805027176 -2.9084240857292625 -46.444337161382037 73.059677886962888 77.114251581827801 24.680157366551853 -7.9121909822736471 53.930660526926921 -7.6063037060424623 -1.7061898874060457 -3.5967239009135441 92.672260846032032 -25.2644036871488 -17.395202763875329 23.020278103177141 73.484754435221348 91.198531509399416 10.215685541314237 30.441007932244915 -12.270744846343995
leaf_weight=384 2360 164 24 22 22 29 25 54 23 35 23 34 24 20 42 266 21 41 1167 223 1472 36 61 30 41 33 25 136 146 25
leaf_count=384 2360 164 24 22 22 29 25 54 23 35 23 34 24 20 42 266 21 41 1167 223 1472 36 61 30 41 33 25 136 146 25
internal_value=3.68995e-08 10.5988 13.5932 21.2234 19.1901 -19.2199 22.2995 24.426 14.5422 37.2189 31.3977 25.546 0.776328 27.132 37.5718 18.7083 50.8058 32.9839 -2.30761 -0.959832 3.04044 15.9636 23.3564 13.579 60.9548 45.5247 20.1245 23.5148 32.7428 24.1966
internal_weight=7008 1253 1089 705 681 51 630 608 343 265 230 205 67 43 138 320 104 62 5755 4588 2228 756 533 423 110 74 362 332 196 171
internal_count=7008 1253 1089 705 681 51 630 608 343 265 230 205 67 43 138 320 104 62 5755 4588 2228 756 533 423 110 74 362 332 196 171
is_linear=0
shrinkage=0.1


Tree=29
num_leaves=31
num_cat=0
split_feature=4 8 8 6 6 10 7 3 0 3 6 2 7 7 6 6 4 2 7 3 2 8 8 1 10 3 7 7 1 7
split_gain=1.40306e+07 1.04456e+07 1.16909e+07 1.16859e+07 1.03728e+07 5.94519e+06 6.82419e+06 1.31656e+07 1.02057e+07 7.067e+06 9.43394e+06 1.73755e+07 2.50544e+07 1.3353e+07 1.04742e+07 9.46988e+06 8.54231e+06 5.72081e+06 4.57276e+06 7.24058e+06 4.35837e+06 3.73735e+06 7.35229e+06 6.44827e+06 4.0107e+06 3.6679e+06 6.33876e+06 1.4007e+07 1.1678e+07 8.26058e+06
threshold=-0.36492436848068305 -0.43598135115742426 1.1571609695679992 0.86125503803327519 -1.171349943481222 2.3254065517846532 -1.2748617255057779 1.3184017242368686 0.31110645565080569 1.0000000180025095e-35 -0.30023352283215182 0.15622638035154385 0.99561972212239869 0.88209564974098975 -0.59060566304850848 -0.8809778032648653 -1.970414226797643 0.70373356471221793 -0.25314507407309861 0.58323652669538906 -0.17227793026485519 0.57783648930420872 -0.14631911102552914 1.7393514118826101 -0.43901071218183174 1.5021930236222383 0.54152343259676328 0.76857157735958093 0.33324744315839699 -1.0478135807429603
decision_type=2 2 2 2 2 2 2 2 2 2 2 2 2 2 2 2 2 2 2 2 2 2 2 2 2 2 2 2 2 2
left_child=1 -1 3 4 -3 6 7 17 -9 21 11 13 14 16 -13 -14 -11 -6 19 -5 -18 22 -8 24 -24 -12 29 -28 -29 -27
right_child=-2 2 -4 18 5 -7 9 8 -10 10 25 12 15 -15 -16 -17 20 -19 -20 -21 -22 -23 23 -25 -26 26 27 28 -30 -31
leaf_value=-6.4265130617262161 -3.0548180688138289 -16.181545966031941 -7.8321871604409115 -11.249472972235562 47.282638747302386 -20.796228210585458 8.8337361872196194 -20.606869022266284 61.146202292809122 34.017882784329935 32.00606092808178 -1.3056369749704997 -17.77101849642667 87.291403147379569 -71.35440390351657 52.118389746483331 8.2920322418212891 113.002700692636 -28.195060675484793 48.546826869470102 -57.725928325653086 16.622357215881348 77.17601791381837 114.70265866756441 22.069989490509034 -33.553993225097656 -78.901253585815425 -45.874478317260746 33.454836350017125 34.542081115582242
leaf_weight=485 4780 86 299 81 26 35 32 37 26 65 243 30 33 30 74 47 20 27 77 27 20 55 25 20 28 20 20 25 72 163
leaf_count=485 4780 86 299 81 26 35 32 37 26 65 243 30 33 30 74 47 20 27 77 27 20 55 25 20 28 20 20 25 72 163
internal_value=2.12248e-09 6.55387 10.1657 13.8925 17.3409 19.7986 21.0472 44.0325 13.1325 18.4382 14.8556 1.20675 -18.7841 28.4535 -51.148 23.289 11.6427 80.7627 -9.57547 3.6996 -24.7169 37.7395 48.8009 66.3207 48.0634 22.8741 15.4771 -2.70204 13.0091 27.0999
internal_weight=7008 2228 1743 1444 1259 1173 1138 116 63 1022 862 319 184 135 104 80 105 53 185 108 40 160 105 73 53 543 300 117 97 183
internal_count=7008 2228 1743 1444 1259 1173 1138 116 63 1022 862 319 184 135 104 80 105 53 185 108 40 160 105 73 53 543 300 117 97 183
is_linear=0
shrinkage=0.1


Tree=30
num_leaves=31
num_cat=0
split_feature=3 8 2 0 7 2 8 4 3 6 2 3 7 3 8 4 6 10 7 4 1 7 2 2 10 4 0 0 1 1
split_gain=1.14196e+07 7.29933e+06 6.62285e+06 6.89199e+06 1.21416e+07 9.06586e+06 7.60257e+06 7.31086e+06 6.57839e+06 6.93465e+06 4.91638e+06 4.74821e+06 7.66666e+06 6.53047e+06 4.51144e+06 4.38536e+06 5.79158e+06 8.99886e+06 7.68732e+06 4.29081e+06 5.58276e+06 4.55237e+06 4.17742e+06 4.05081e+06 4.04225e+06 6.06798e+06 4.02794e+06 4.02551e+06 3.81435e+06 4.78199e+06
threshold=1.1083545249393032 1.3019920896339465 0.96966562568740511 0.24987682590423974 0.087427143071127825 0.60205365904523911 0.14334312910636596 -2.1257842130863809 1.6466004731393149 -0.30023352283215182 0.10929719312063159 1.6859843230076084 0.54152343259676328 1.8435197224807827 0.43300536923826111 -1.5560942633610082 -0.59060566304850848 2.2865148537833799 -1.5019098702685956 -0.77924433191731779 2.1611826024998746 0.88209564974098975 -0.28960089834214248 0.29701394204429393 2.2648466220398129 -1.245354290783532 0.86217312336989815 1.6581583100752544 1.5987410150101888 0.80194876606646803
decision_type=2 2 2 2 2 2 2 2 2 2 2 2 2 2 2 2 2 2 2 2 2 2 2 2 2 2 2 2 2 2
left_child=15 2 3 7 6 8 -5 -2 9 -6 22 19 13 -13 26 16 17 -1 -18 20 21 28 -10 -14 25 -16 -8 -11 29 -9
right_child=1 -3 -4 4 5 -7 14 11 10 27 -12 12 23 -15 24 -17 18 -19 -20 -21 -22 -23 -24 -25 -26 -27 -28 -29 -30 -31
leaf_value=10.326410600603843 45.331547088850115 -18.46049847907798 -45.046929826736452 5.5377956662859233 -50.543516762025895 73.655309410095228 108.00732434590657 25.419864782373956 33.400107192993168 -6.9683095338209631 49.523816542191945 -21.350546366373699 -78.0507276452106 52.419787445068359 -5.2339288119612073 -2.4164004673487285 46.750929468328309 66.056540031994089 -17.768038466080377 -3.9551588082686067 -3.3065165819227698 65.333011863971578 -31.232853055000305 -16.515118007659915 80.550591735839845 55.167212129250551 48.768892444263805 35.663203266688754 56.835705457414896 -32.961974983215335
leaf_weight=196 42 86 20 42 31 20 24 47 20 106 44 30 23 20 29 5566 22 34 115 192 80 29 20 20 20 39 22 28 21 20
leaf_count=196 42 86 20 42 31 20 24 47 20 106 44 30 23 20 29 5566 22 34 115 192 80 29 20 20 20 39 22 28 21 20
internal_value=2.71882e-08 9.48334 11.9132 13.0889 22.2405 8.87948 42.6615 5.31703 3.6766 -7.92073 26.4571 1.83029 -18.4687 8.15759 54.2973 -1.71829 8.86947 18.5648 -7.40733 6.68326 17.0517 30.9718 1.08363 -49.4295 41.0312 29.4079 79.6759 1.93977 19.6482 7.99245
internal_weight=7008 1075 989 969 445 269 176 524 249 165 84 482 93 50 134 5933 367 230 137 389 197 117 40 43 88 68 46 134 88 67
internal_count=7008 1075 989 969 445 269 176 524 249 165 84 482 93 50 134 5933 367 230 137 389 197 117 40 43 88 68 46 134 88 67
is_linear=0
shrinkage=0.1


Tree=31
num_leaves=31
num_cat=0
split_feature=4 8 8 6 6 8 2 4 10 3 3 6 2 2 2 1 1 1 7 8 6 2 6 6 8 6 7 3 6 8
split_gain=9.52322e+06 7.44651e+06 9.20967e+06 6.21986e+06 5.9505e+06 6.21031e+06 6.4801e+06 1.01562e+07 7.99125e+06 6.28208e+06 6.25645e+06 5.65679e+06 5.00124e+06 9.76364e+06 4.4131e+06 4.39817e+06 7.96923e+06 6.10442e+06 7.14639e+06 4.14277e+06 4.85841e+06 7.10665e+06 3.82363e+06 6.3192e+06 9.54654e+06 4.06726e+06 1.21614e+07 5.54192e+06 4.48578e+06 5.15679e+06
threshold=-0.36492436848068305 -0.43598135115742426 0.57783648930420872 1.1516271782496321 -1.4617220836975786 1.0000000180025095e-35 -1.1890769869346782 -1.3489342816426906 2.2837368753547174 0.87205142572954164 1.5021930236222383 0.57088289781691848 0.062368005889719344 1.0000000180025095e-35 0.51601681578855996 2.2080527347906815 -0.04171361516805993 0.42698770774001121 0.54152343259676328 0.43300536923826111 1.0000000180025095e-35 0.40651537891642697 -0.8809778032648653 -0.59060566304850848 1.1571609695679992 -0.30023352283215182 0.88209564974098975 1.2133781245880857 0.86125503803327519 1.3019920896339465
decision_type=2 2 2 2 2 2 2 2 2 2 2 2 2 2 2 2 2 2 2 2 2 2 2 2 2 2 2 2 2 2
left_child=1 -1 3 4 -3 11 7 -7 12 -10 -11 14 13 15 -6 16 -8 -18 -19 20 -14 -22 -4 24 -24 26 27 -25 29 -27
right_child=-2 2 22 -5 5 6 8 -9 9 10 -12 -13 19 -15 -16 -17 17 18 -20 -21 21 -23 23 25 -26 28 -28 -29 -30 -31
leaf_value=-5.5601729467849141 -2.5167414261933776 -30.200911059746375 -15.080527387138543 -21.1530638800727 19.599189108005469 12.021378440856935 50.615359643011381 111.59234684535437 75.722166984025819 -20.039613838195802 48.182023427544578 -30.665997379847937 -4.0781011169339401 86.277662913004562 -8.1823479978344107 42.09187743447044 -55.514676094055176 -19.965342588202901 42.446175098419189 -20.459884200376624 6.3002511705671047 72.058535102561663 46.312166924225664 -22.692026669827719 -7.8261217117309574 15.362700887320109 36.650888609091446 -82.010464949834912 -15.690177216380835 -15.787314444869313
leaf_weight=485 4780 26 131 45 207 20 33 21 43 20 41 35 81 24 79 55 20 43 32 51 42 27 76 63 57 257 30 21 96 67
leaf_count=485 4780 26 131 45 207 20 33 21 43 20 41 35 81 24 79 55 20 43 32 51 42 27 76 63 57 257 30 21 96 67
internal_value=3.58474e-09 5.39947 8.44906 15.1288 16.9429 18.3453 24.7676 63.0211 21.7044 46.4493 25.8143 7.28136 15.3968 26.3068 11.9253 18.4417 8.27954 -6.42659 6.66357 4.16125 12.5324 32.0318 0.538851 3.60652 23.11 -1.25109 -18.0026 -37.5216 3.29573 8.92119
internal_weight=7008 2228 1743 945 900 874 553 41 512 104 61 321 408 207 286 183 128 95 75 201 150 69 798 667 133 534 114 84 420 324
internal_count=7008 2228 1743 945 900 874 553 41 512 104 61 321 408 207 286 183 128 95 75 201 150 69 798 667 133 534 114 84 420 324
is_linear=0
shrinkage=0.1


Tree=32
num_leaves=31
num_cat=0
split_feature=3 2 7 2 10 4 10 7 0 4 0 2 2 2 10 2 10 8 0 4 3 6 6 8 8 6 6 7 4 0
split_gain=7.75024e+06 8.30562e+06 7.58925e+06 5.34211e+06 5.17117e+06 6.39138e+06 4.92675e+06 6.50395e+06 4.71828e+06 5.91762e+06 4.60602e+06 4.42654e+06 4.42248e+06 7.75584e+06 4.07087e+06 4.88589e+06 3.60394e+06 7.38229e+06 7.64418e+06 4.78516e+06 3.59593e+06 3.10401e+06 3.81076e+06 7.24093e+06 1.37204e+07 8.11485e+06 1.4934e+07 5.67405e+06 8.59138e+06 6.16253e+06
threshold=0.924563225553933 -1.2438277053707492 1.6767641564108517 -1.4315444542944069 2.3067940963126152 -2.0739942176568014 2.2851258645690486 -0.13962100169168984 0.43356571514393721 0.56729554925174552 0.24987682590423974 0.29701394204429393 -0.18792099267516374 0.24226322360822297 2.2751251422258636 0.24226322360822297 2.2976267674980293 -0.14631911102552914 -0.30118984181485281 -1.970414226797643 1.6203445732271191 0.86125503803327519 -1.171349943481222 -0.43598135115742426 1.0123298495020514 -0.59060566304850848 -0.30023352283215182 0.6550475049781721 0.87803552182922162 0.43356571514393721
decision_type=2 2 2 2 2 2 2 2 2 2 2 2 2 2 2 2 2 2 2 2 2 2 2 2 2 2 2 2 2 2
left_child=16 3 4 -2 5 11 7 8 -7 12 -8 20 -10 -14 -9 -16 21 -18 -19 -20 -3 22 -1 -24 25 -25 -27 28 29 -28
right_child=1 2 -4 -5 -6 6 10 14 9 -11 -12 -13 13 -15 15 -17 17 18 19 -21 -22 -23 23 24 -26 26 27 -29 -30 -31
leaf_value=-5.3814181703717576 10.947030758857728 69.665928855309119 54.81538722991943 80.925107256571451 -41.085260910034179 2.7436494792119053 4.9757012414150559 -2.794620966325041 15.219513159990312 -15.990972094382011 46.384304841359459 -9.2023090662956246 75.296429213610566 2.5772855758666995 -62.587672600379364 -3.3608618354797368 -17.658044398914683 0.31046627598839838 30.465514183044434 98.049937572479251 25.142115122477215 -5.5954227470596791 -3.7878117635906663 24.975788857973669 -5.3057820636992652 -27.363519028516919 59.305332396302042 -6.6735888414084918 -1.3584001111984254 -1.6422091790607998
leaf_weight=1097 20 26 30 24 25 312 61 671 72 31 48 25 44 22 26 30 44 37 22 20 60 1753 1231 417 532 104 79 64 60 21
leaf_count=1097 20 26 30 24 25 312 61 671 72 31 48 25 44 22 26 30 44 37 22 20 60 1753 1231 417 532 104 79 64 60 21
internal_value=-9.66221e-10 6.30044 5.03009 49.1169 4.00218 4.79153 2.84929 1.01205 10.0329 23.4901 23.2107 27.8359 32.359 51.0567 -4.95639 -30.859 -1.75529 15.1689 33.4522 62.6486 38.6028 -2.14381 -0.465401 1.68487 6.96041 15.7196 3.95188 18.4912 28.5571 46.5063
internal_weight=7008 1527 1483 44 1453 1428 1317 1208 481 169 109 111 138 66 727 56 5481 123 79 42 86 5358 3605 2508 1277 745 328 224 160 100
internal_count=7008 1527 1483 44 1453 1428 1317 1208 481 169 109 111 138 66 727 56 5481 123 79 42 86 5358 3605 2508 1277 745 328 224 160 100
is_linear=0
shrinkage=0.1


Tree=33
num_leaves=31
num_cat=0
split_feature=3 2 7 6 7 4 4 7 8 8 3 7 2 3 2 10 0 3 7 7 3 4 4 2 1 3 2 8 10 8
split_gain=6.27769e+06 6.72755e+06 6.14729e+06 4.54622e+06 1.40654e+07 7.52248e+06 6.31697e+06 5.17801e+06 4.33126e+06 5.43214e+06 5.20052e+06 6.81901e+06 5.51261e+06 4.68801e+06 4.32711e+06 4.14174e+06 3.76228e+06 3.57791e+06 3.35336e+06 4.23583e+06 4.29493e+06 7.14663e+06 4.12412e+06 3.20181e+06 3.1655e+06 3.48014e+06 3.12938e+06 3.03586e+06 2.91919e+06 5.97966e+06
threshold=0.924563225553933 -1.2438277053707492 1.6767641564108517 -0.30023352283215182 0.88209564974098975 -2.0739942176568014 -1.7114642496497463 1.4497160116480341 1.3019920896339465 -0.58081247122337176 1.9354153721734675 0.6550475049781721 -0.66503439618946703 1.4759371237100427 -1.4315444542944069 2.2648466220398129 1.0000000180025095e-35 1.6072166232710212 0.31447528783394552 -0.13962100169168984 1.5547048234466299 -1.4007242770722701 -1.4525142725018496 -0.75107123944614174 1.5518708827193819 1.8829035723490761 -0.39128080400913012 0.72266760937015628 2.2976267674980293 -0.14631911102552914
decision_type=2 2 2 2 2 2 2 2 2 2 2 2 2 2 2 2 2 2 2 2 2 2 2 2 2 2 2 2 2 2
left_child=28 14 3 4 16 15 -6 8 9 -7 12 -12 13 23 -2 24 -3 -8 19 -14 -21 -22 -20 -11 -5 -26 -24 -28 -1 -30
right_child=1 2 -4 5 6 7 17 -9 -10 10 11 -13 18 -15 -16 -17 -18 -19 22 20 21 -23 26 -25 25 -27 27 -29 29 -31
leaf_value=-1.9294308206997464 9.852326979637148 -6.3498972112482246 49.33384893099467 48.852256198724113 -28.13689773393714 -7.6045404989189578 15.198356017660586 -19.794522066088931 -11.230945490011528 27.087843835764922 13.76348774249737 -62.851433817545569 18.3544207889239 -50.377269588817256 72.832597541809079 66.148917473687064 -46.706980108285883 60.875610464590572 55.0522638986277 -17.420336800813676 -22.671632289886475 58.267115275065102 55.195356889204554 -21.239587161174189 -23.009836109824803 34.026762433052063 24.060713652688634 -8.6309795737266537 -15.892239986766469 30.107019922099536
leaf_weight=5358 20 33 30 24 23 180 47 87 134 29 26 21 300 22 24 27 77 27 43 80 20 24 22 26 23 20 98 40 44 79
leaf_count=5358 20 33 30 24 23 180 47 87 134 29 26 21 300 22 24 27 77 27 43 80 20 24 22 26 23 20 98 40 44 79
internal_value=3.75527e-08 5.6704 4.52708 3.60196 -10.1216 5.88188 17.6373 3.66236 5.57855 7.99796 11.7376 -20.4687 13.8877 -11.3634 44.2052 33.0828 -34.5999 31.8644 16.9887 11.9285 -3.61814 21.4768 27.5579 4.24215 19.7577 3.51881 20.1688 14.5849 -1.57977 13.652
internal_weight=7008 1527 1483 1453 207 1246 97 1152 1065 931 751 47 704 77 44 94 110 74 627 424 124 44 203 55 67 43 160 138 5481 123
internal_count=7008 1527 1483 1453 207 1246 97 1152 1065 931 751 47 704 77 44 94 110 74 627 424 124 44 203 55 67 43 160 138 5481 123
is_linear=0
shrinkage=0.1


Tree=34
num_leaves=31
num_cat=0
split_feature=8 8 0 10 3 8 0 2 4 4 2 8 4 10 3 4 3 3 0 2 2 6 8 6 2 1 2 1 3 2
split_gain=5.43425e+06 1.80137e+07 6.11266e+06 5.21976e+06 5.25331e+06 5.1085e+06 4.40409e+06 6.70714e+06 6.09678e+06 6.93279e+06 5.18974e+06 4.21796e+06 5.01129e+06 4.17701e+06 4.08988e+06 4.54414e+06 3.68005e+06 6.49803e+06 3.06717e+06 2.87887e+06 4.62986e+06 2.6674e+06 3.98259e+06 7.62579e+06 7.75929e+06 6.33231e+06 5.59347e+06 5.15644e+06 1.3265e+07 8.43499e+06
threshold=-0.14631911102552914 0.43300536923826111 1.0458620126095959 2.2495677406821692 0.11063032827586633 1.0000000180025095e-35 0.37233608539737145 0.16404791155669812 -1.5560942633610082 -1.970414226797643 0.25790628601853155 0.57783648930420872 -1.7632542450793256 2.2685968929185072 1.699112272963706 -0.83103432734689731 1.1608663247636946 0.084374428363670609 0.80094349362333239 -0.015847306161805515 -0.58681908413794226 0.86125503803327519 1.1571609695679992 -0.8809778032648653 0.17186944276185237 1.9737020733366457 0.67244743989160971 0.38011757544920405 1.4102973739295535 -0.61810520895855026
decision_type=2 2 2 2 2 2 2 2 2 2 2 2 2 2 2 2 2 2 2 2 2 2 2 2 2 2 2 2 2 2
left_child=-1 2 5 21 -5 -2 7 14 9 -8 -9 -6 -13 -4 15 -7 17 -17 -14 20 -10 22 23 -3 25 27 -26 28 -25 -29
right_child=1 3 13 4 11 6 8 10 19 -11 -12 12 18 -15 -16 16 -18 -19 -20 -21 -22 -23 -24 24 26 -27 -28 29 -30 -31
leaf_value=-3.0420797053795656 3.9853182978958253 -9.055816964948141 -6.4542727833872213 -32.238932020013984 48.097487249374389 55.357939838944823 19.60319488525391 -33.225371386110787 36.201475422198961 88.151672024197055 9.8755521170659506 -7.5433743850044586 15.134851331710815 34.675342777797155 -13.585329271399457 17.844209156036378 -15.215727043151857 63.110410141363381 61.620980453491214 37.957526897192004 -21.0192927329771 -8.794495602114095 -6.1708178707050845 26.40352142351739 -16.354090251773595 -26.564501118659976 16.365413799518493 -10.152312628428142 -34.039516309102382 57.641404110346087
leaf_weight=3195 247 323 209 22 40 57 25 32 26 36 220 69 40 28 23 140 22 41 22 50 31 653 868 188 144 28 82 24 45 78
leaf_count=3195 247 323 209 22 40 57 25 32 26 36 220 69 40 28 23 140 22 41 22 50 31 653 868 188 144 28 82 24 45 78
internal_value=-4.95004e-10 2.54903 12.7723 -2.07208 13.7575 16.3566 20.7032 16.2679 34.8277 60.058 4.40242 19.6752 10.9967 -1.59508 26.8336 30.4091 23.4038 28.0979 31.6299 20.4441 5.08141 -3.32778 -1.32229 3.29232 10.0639 19.1203 -4.48241 22.9387 14.73 41.6899
internal_weight=7008 3813 1187 2626 193 950 703 535 168 61 252 171 131 237 283 260 203 181 62 107 57 2433 1780 912 589 363 226 335 233 102
internal_count=7008 3813 1187 2626 193 950 703 535 168 61 252 171 131 237 283 260 203 181 62 107 57 2433 1780 912 589 363 226 335 233 102
is_linear=0
shrinkage=0.1


Tree=35
num_leaves=31
num_cat=0
split_feature=6 8 8 6 7 3 3 6 7 0 6 0 7 2 7 4 4 10 8 3 3 7 7 3 4 4 3 2 2 2
split_gain=4.48521e+06 6.75089e+06 1.2109e+07 1.17194e+07 9.3705e+06 1.30636e+07 9.00262e+06 7.18565e+06 1.02297e+07 1.26018e+07 8.91921e+06 6.61581e+06 6.33275e+06 5.70407e+06 4.68118e+06 4.37391e+06 7.79657e+06 5.19241e+06 4.14261e+06 3.86892e+06 1.07604e+07 3.73225e+06 8.00442e+06 4.25566e+06 4.6879e+06 4.0116e+06 6.61174e+06 3.98006e+06 7.51795e+06 6.9041e+06
threshold=0.86125503803327519 -0.29115023109147664 0.86749872943610384 -1.171349943481222 -1.5019098702685956 1.4496812237978471 -0.0075212213290143139 -0.30023352283215182 0.54152343259676328 0.066187936664542132 -0.59060566304850848 -0.60733799054768212 1.2226678668852164 -0.52424683449671694 -1.3883857978871867 -2.1775742085159604 -1.0381943090652144 2.2326220722673287 0.14334312910636596 1.6334725231832168 0.64887627647587831 1.4497160116480341 1.5632400840294429 1.8960315223051738 -1.8150442405089049 0.36013556753342807 0.70138807630026967 -0.14099180544424703 -1.1656123933192244 -0.66503439618946703
decision_type=2 2 2 2 2 2 2 2 2 2 2 2 2 2 2 2 2 2 2 2 2 2 2 2 2 2 2 2 2 2
left_child=1 -1 3 -3 5 11 13 8 10 12 15 -5 -10 -6 -9 -8 17 -17 -13 20 -11 23 -23 25 -25 26 -16 28 -28 -30
right_child=-2 2 -4 4 6 -7 7 14 9 19 -12 18 -14 -15 21 16 -18 -19 -20 -21 -22 22 -24 24 -26 -27 27 -29 29 -31
